1600 64
403 0.36259046 -0.12635674 0.3118789 0.33076724 0.45242593 0.015081907 -0.1094814 -0.3606989 0.19745915 0.4638005 0.012337272 0.57677907 0.024863176 -0.80220526 0.30838913 0.31419137 -1.0234399 0.071360715 -0.52154124 0.19055562 0.5709481 0.33708864 -0.5856249 -0.3553834 -0.34675336 0.74705553 -0.4451486 0.05961501 0.55359536 -0.43115315 -0.4516412 -0.060920037 0.39157814 -0.431006 -0.05828876 0.2784628 -0.18534027 -0.29728183 -0.10008571 -0.47433177 0.6559038 0.55917335 -0.91557306 0.54063517 0.57577974 -0.11868809 0.21086289 -0.09578739 0.502896 0.24907434 0.023399187 0.7419247 -0.6192892 0.55674845 -0.33871073 -0.751732 -0.121147655 -0.6423328 -0.16547553 -0.017623717 -0.002671164 -0.13932395 0.52269584 0.20118536
410 0.2772639 0.2984059 0.087515384 -0.40319064 -0.1627175 -0.41896036 0.83934873 -0.7224505 0.21462649 0.0023669621 0.5459277 -0.51151395 0.5633375 -0.8018441 0.21564282 0.33770925 -0.72663105 0.67639667 0.6152148 0.4282612 0.42742226 0.44854 -0.6082346 -1.0552261 -0.73492056 0.7641832 -0.53592616 0.53216654 0.2641413 0.36073017 0.65345293 0.37844387 -0.26956075 -0.6390225 0.7736667 0.1758887 -0.7155945 0.57691395 0.01689541 0.16483556 0.5106146 -0.21829242 -0.6497992 -0.07580214 0.0008156098 -0.06427888 0.32596922 -0.10231131 -0.80248696 0.36449173 0.17178789 0.4132621 -0.16896175 1.0070859 0.11955612 0.24159326 0.8127669 -0.8558936 -0.41094792 -0.6046813 -0.012708886 0.4766646 0.672474 -0.43412215
1170 -0.021963835 0.2197732 0.47881013 -0.4154205 -0.13142553 -0.44133228 0.29982492 -0.65027094 0.40170595 0.24690904 0.34007663 -0.009958834 0.5830633 -0.57873565 -0.26813477 0.5087046 -0.7326321 0.85488063 0.33182934 0.7295652 0.9762532 0.20429093 -0.22769263 -1.3207299 -0.44641674 0.5007062 -0.67305315 0.95463675 0.73897195 0.39057672 0.51365334 0.33885196 -0.60992783 -0.3579584 0.33381972 -0.0039940937 -0.688637 0.58818614 -0.019763649 0.24322192 0.43197322 0.12672074 -0.31246385 -0.35591048 0.34846404 0.26720035 0.19492118 -0.018499965 -0.6424085 -0.22701007 0.5552149 0.2220604 -0.5738645 0.88461685 0.40457025 0.28132826 0.818245 -0.63612515 -0.6061182 -0.42163315 0.09316272 0.36111534 0.7046158 -0.62134516
1372 0.36504376 0.110261455 0.2641972 -0.0018183307 0.10529121 0.016423687 -0.5672657 -0.30604458 -0.0955873 -0.10488231 0.13893253 -0.5924454 0.4153349 0.44201326 -0.06962347 -0.1390044 -0.72658765 -0.3773854 -0.70206505 0.08837624 0.24454279 0.16598873 -0.7664955 -0.90266114 0.10319816 0.5768763 -1.2336038 -0.628131 -0.07628349 0.14945355 0.015852142 0.042335525 -0.3671332 -0.24385168 0.7677868 -0.16826159 -0.30038527 0.038849227 -0.05742992 -0.23612887 0.109087974 -0.47798488 -0.2809097 0.5965003 1.0296366 -0.11314996 -0.07159674 0.51593876 -0.08302379 -0.037371036 -0.12740712 -0.5167591 0.013741515 -0.03589526 0.07382276 -0.35221118 0.11852177 -0.15178247 -0.39720318 0.07042529 -0.69829035 0.2369203 0.30160427 -0.09781365
6 0.15415506 -0.467091 -0.35859972 -0.11698048 0.5931519 -0.29331732 0.24460804 -0.45791286 0.08431066 0.9208269 -0.3203464 -0.32617974 -0.23213331 -0.6284685 0.2930038 0.5992884 0.06503447 0.48008385 0.05766005 0.5308735 0.3548096 0.67723364 -0.57249695 -1.1532644 -0.486569 0.0801127 -0.2814137 -0.22808197 -0.13653044 -0.17384504 -0.21208835 -0.045860924 -0.13997121 -0.3935903 0.13330767 0.38456497 -0.39214036 -0.19896637 0.6511876 0.00076275127 0.121139385 -0.06561811 -0.89566654 -0.44316784 0.29556108 0.4081937 -0.39988524 0.46498743 -0.04432978 -0.24328366 0.2940578 -0.044993155 0.3900128 -0.3153407 0.44204187 1.072918 0.54563344 -0.06603973 0.04204206 -0.3433292 -0.63406706 0.11288833 -0.34225154 0.19287756
1340 0.46413645 -0.0639077 0.22888216 0.20115867 -1.1947179 0.28432918 -0.042166192 -0.022469927 -0.14005826 -0.1573744 0.027176354 -0.19089206 -0.19407251 -0.3316798 0.28676045 0.7526098 -0.13751031 0.3188925 -0.826801 0.8142101 0.5494126 0.50400805 0.23222117 -1.0773374 -0.6839568 -0.090517186 0.026102293 -0.095840685 -0.69479644 -0.2974602 0.18067937 -0.29935405 -0.9767603 -0.9856652 -0.1930415 0.0750763 -0.4792083 0.30616683 -0.15506335 0.14237843 -0.53280896 0.4888112 -0.5714918 -0.1532095 1.1152488 -0.0028269468 0.45867136 0.31050187 -0.7098785 -0.07564707 0.44489083 -0.10820552 -0.6450751 0.4933995 0.08473333 0.54713106 -0.31853232 0.050208904 -0.011268934 0.1482166 -0.3070663 0.13208568 0.20162678 0.23699465
219 -0.5643231 -0.37600312 0.24773823 0.10125279 0.10333908 -0.18434496 -1.0232203 -0.5332518 0.1053259 -0.40115446 -0.06848042 -0.022054385 0.23581369 -0.10645324 0.5518316 0.6232439 -0.37248656 -0.2327405 -0.2083311 0.7804538 1.1085992 0.7748909 -0.38827008 -0.39754322 -0.48310474 0.62804043 -0.19351055 -0.11452049 -0.105266795 -0.7938509 0.24521255 -0.37568223 -0.0048788595 -0.6587169 0.44443813 0.15065339 -0.44349477 -0.7347455 -0.38431537 0.03879907 0.28639024 -0.12700504 -0.103534944 0.25940868 -0.11171351 0.22671601 0.6594597 0.16170958 -0.13461238 0.24207266 0.82891136 -0.10090666 -0.051756147 0.19743805 -0.26398814 0.10462204 0.30022332 0.009903027 -0.96381205 -0.4794092 0.4085653 -0.34657598 0.13859108 -0.5889199
1132 0.40821627 -0.5429784 0.17207313 0.22404788 0.24366206 0.20168439 -0.1396982 -0.7008659 -0.38394323 0.13757686 0.67387974 -0.14708474 0.17911771 -0.981641 0.7114397 0.59088534 -0.58325744 0.26583114 -0.21661922 0.12817347 0.33179784 -0.13520655 -0.34334454 -0.92022395 -0.4090052 0.36923966 -0.688185 0.59120744 0.063233346 -0.28357196 -0.051749688 -0.37327746 0.3492345 -0.6214802 -0.016133798 0.4415033 -0.27565303 0.2850742 -0.03624168 -0.5072743 0.51642585 -0.010128647 -0.7106562 0.21387558 0.4501711 -0.32241988 -0.2756284 -0.26156983 0.82835084 0.46279472 0.36346072 0.5421253 -0.79994136 0.41728413 -0.40990302 -0.18298562 -0.47098088 -0.21228814 0.09841599 -0.11012307 0.114177965 0.15401718 -0.49950898 0.17372829
1348 0.5561075 -0.16384985 -0.055233918 -0.25941816 0.1434994 -0.17629492 0.6263555 -0.11185425 0.23480555 -0.041232254 0.48803467 -0.4957192 -0.20209494 0.14500341 0.31059766 0.1751244 -0.61171806 -0.4857936 -0.18891153 0.21574174 0.7819191 -0.27556872 -0.5129393 -1.180646 0.4472687 0.45686242 -0.93405104 -0.51682615 0.17658 0.12635414 -0.2703791 0.18907207 -0.10019297 -0.09871371 0.3623051 0.04324936 -0.059920996 0.35751662 -0.25010595 -0.558075 -0.46818784 -0.2639715 -0.6208886 0.2810928 0.6749689 -0.3979897 0.11404358 0.65118164 -0.05345707 -0.23792735 -0.2716027 -0.9755666 0.123538464 -0.06449438 0.008864138 -0.10947519 0.08625336 -0.46867225 -0.6848467 -0.065578796 -0.5120529 0.15247527 0.1433528 0.13332789
109 -0.11863628 0.38993478 0.043939 -0.07798101 -0.054391112 -0.45458463 0.7099135 -0.9485044 0.40230104 -0.08726747 0.07893662 0.16738205 0.12269892 -0.29390466 0.32864442 0.9226754 -1.1281061 0.67501706 0.4217611 0.17883246 0.6530327 0.040128607 -0.41841674 -1.5323923 -0.029640194 0.4366171 -0.703733 0.66072863 0.009270183 0.33572525 0.62482685 0.08066497 -0.17683575 -0.84838235 0.58802235 -0.06546973 -0.33641088 0.82679373 -0.2566415 0.24052902 0.7448953 0.5992958 -0.50685763 -0.65240455 0.033715665 0.020090966 0.6970892 0.30330664 -0.3555768 0.31245446 0.06388604 0.39374048 -0.35466993 0.33763266 0.12861069 0.4325056 0.8047435 -0.586898 -0.74985147 -0.31190842 0.080232315 0.13036405 1.0216012 -0.69173527
1399 0.15232822 -0.32732445 -0.017542722 -0.006056543 0.5594976 -0.13465205 -0.16686511 -0.80565655 -0.42191437 0.11010087 0.42487028 -0.23749883 0.046919964 -0.6951492 0.36804608 -0.06911855 -0.36815608 0.07508288 -0.51512766 0.5343786 0.49794033 0.14052477 -0.6579453 -0.60616446 -0.2729986 0.3547543 -0.38073948 0.26975468 0.39540878 -0.45276266 0.031803478 0.29621133 0.097165175 -0.40183306 -0.10557253 0.11143918 -0.28623796 0.33130696 -0.3580355 -0.8050007 0.5354987 0.27638748 -1.2801341 0.21038583 0.47150776 0.072993204 -0.18042886 -0.012841707 0.88724166 0.20817733 0.15192793 0.36068106 -0.6299383 0.13871792 -0.80240256 -0.030623948 -0.28571147 -1.0480046 0.30658507 -0.027241377 0.1020306 0.056195226 0.29900816 0.36244988
1459 0.2873788 -0.10074925 0.22623652 -0.14380413 -0.3739778 -0.6777062 0.43677467 -0.8835207 0.5498386 0.17074664 0.37477946 -0.29528892 0.45376053 -0.57302666 -0.022429332 0.52994514 -0.61798567 0.68751246 -0.063326284 -0.07051172 0.75416976 0.4960888 -0.8018879 -1.0038505 -0.8510763 0.53778374 -0.58115387 0.5825622 0.43448853 0.6572371 0.6863428 0.17652948 -0.19508703 -0.3452326 -0.00792746 -0.16466416 -0.048855115 0.41430253 0.070543975 0.49664828 0.6385059 0.07241657 -0.51019585 -0.22731209 0.63892657 0.3200101 0.22546472 0.100376196 -0.3246645 -0.14116268 0.6003661 0.29200992 -0.2577475 1.097827 0.545897 0.24696624 0.72766805 -0.78141105 -0.5166815 -0.28281483 0.099848226 0.81229484 0.9893893 -0.7950665
1435 0.341833 0.05725138 -0.15806772 -0.5408331 0.06625641 -0.09231347 -0.0430072 -0.08350545 0.070158355 -0.30377755 -0.2253504 -0.28357896 0.030995507 0.46002924 0.05690511 0.42073867 -0.35949928 -0.25743353 -0.3147538 0.49922866 0.6896786 0.12454226 -0.8301664 -1.5672361 0.13468793 0.31788152 -0.93941873 -0.28053597 0.19031361 -0.0153562855 -0.08603801 0.29250637 -0.19018547 -0.31499895 0.4351785 0.39953452 0.36908203 0.19402872 0.053198937 -0.24026446 -0.5421766 0.13894564 0.082768425 0.2424416 0.8018941 -0.23233229 0.528321 0.4615336 -0.0981705 -0.6555314 -0.64333904 -0.48894623 -0.35987094 -0.024056466 -0.28617233 0.1720825 0.343033 -0.36010608 -0.62228596 -0.1418284 -0.8451097 0.28018513 -0.1580217 -0.25168315
778 0.0571082 0.07530835 0.5412138 -0.095166676 -0.54037476 -0.061604243 0.7081943 -1.044267 0.2736597 0.30416095 0.16060217 -0.20719402 0.06600898 -0.27736807 0.30637205 0.48592883 -0.8283724 0.7608972 -0.29537526 0.41871196 0.57221276 0.24921162 -0.613838 -0.80855346 -0.6450308 0.888248 -0.6570869 0.23458958 0.33906922 0.15182021 0.6877328 0.16207565 -0.26390994 -0.262321 0.60445946 -0.13318609 -0.5354483 0.9210062 -0.2629432 0.35923594 0.933535 0.43233114 -0.6223497 -0.49097508 -0.06732741 -0.24078736 0.18667246 0.16009259 -0.5294315 -0.093869716 0.60224646 -0.016246023 -0.14771071 0.6504369 0.37090236 0.04540791 0.38452822 -0.493952 -0.8305172 -0.52473444 -0.26941818 0.70668757 1.537806 -0.39550546
751 -0.34166762 -0.2088915 -0.06481681 0.53327996 0.23161899 0.22110684 -0.81483406 -0.40315813 0.17519163 -0.48125714 -0.42330983 -0.39907712 -0.44886136 -0.12515631 0.8154615 -0.19396234 -0.31069466 -0.2606432 -0.20251589 1.3461063 1.5639814 0.66608644 -0.75147635 -0.04482072 -0.35652348 0.69942755 0.15971339 -0.16295311 -0.28167838 -0.09208969 0.46241578 -0.43944293 -0.4667979 -0.5442783 0.50975037 0.39833933 -0.2662323 -0.24243389 -0.35728568 -0.03639713 -0.18120655 -0.11786977 -0.34625027 0.12600245 0.6508493 0.14684816 -0.21632364 0.047088813 0.06213769 0.70178986 0.35963234 -0.17770042 -0.028714709 0.19659925 -0.2933574 0.20574509 0.56598747 0.32222864 -0.5421142 -0.3078776 0.0862326 -0.30362236 0.16940835 -0.17072
1049 0.5585084 0.1694174 0.29586658 -0.06664516 0.040040843 -0.024083566 0.43865427 -0.3911089 -0.04033652 0.23014201 0.24359532 -0.44745243 0.29338118 -0.21093895 -0.33056402 0.5145862 -0.5925514 -0.5266735 -0.5232534 0.15525362 0.23787062 -0.09773683 -0.5228014 -1.2490251 -0.21171696 0.08664517 -1.072172 -0.7545955 0.4660332 0.81793135 -0.3453188 0.26569664 -0.2045301 0.047238786 0.47525993 -0.05791624 -0.63502115 0.30273208 -0.09172953 -0.52927303 0.12539126 -0.18218772 -0.46463102 0.10677453 0.8855843 -0.4605517 0.5622613 0.35404035 0.08108219 -0.5954411 -0.3102625 -0.5225042 -0.3102647 0.023688247 0.23578319 0.34237748 0.07840374 -0.11289431 -0.643931 0.059095565 -0.89751655 0.29854843 -0.028175656 0.30236065
1406 0.21067713 0.15026793 0.024828857 -0.2232973 -1.043802 0.37442595 -0.3258215 -0.0324546 -0.069565095 -0.019799571 0.045603674 0.17383935 0.25023434 -0.30442798 0.49807805 0.24087515 -0.48473844 0.80471325 -1.1132145 1.1029677 0.34914282 -0.027901776 0.3380991 -0.82007796 -0.72430015 0.085074976 -0.41796333 -0.054104153 -0.4120014 -0.01915628 -0.52392256 -0.2414327 -0.89027315 -0.52845883 0.19478966 -0.11849335 -0.658531 -0.19207214 -0.1516421 0.08551159 -0.4233869 -0.020789318 -0.26757064 -0.32100514 1.3989792 -0.041143086 0.4187557 -0.021946298 -0.66370076 0.82559687 0.26073244 -0.06976414 -0.011567192 0.33816382 0.038123384 0.34112498 -0.3831223 -0.02617386 -0.2132974 0.047334403 -0.71517986 0.13390395 0.49192452 0.12369982
437 0.7351464 0.044277497 0.55080104 -0.16395094 -0.5806666 -0.0028620365 -0.37099168 -0.31512114 0.06759965 -0.5327633 0.07983613 -0.18029572 0.16347165 -0.31119877 0.45787916 0.6266834 -0.0019149814 0.27333367 -0.76938605 0.5269943 0.27205473 0.32169166 0.52963924 -0.96840113 -0.74478567 0.16996023 0.25858542 -0.25267893 -0.834889 0.09641813 0.0979002 -0.2221909 -0.6082822 -0.9919315 -0.16892895 0.094985664 -0.8765451 -0.44086254 -0.39071232 0.6543169 -0.24674712 0.18363155 -0.55049217 0.05355981 1.425912 -0.23821077 0.79151404 -0.38166937 0.10139191 0.057625774 -0.20863199 -0.11782369 0.04984422 0.5638484 0.14875117 0.7509292 -0.35352275 -0.21678407 -0.3590444 -0.016592342 0.101145364 0.43249875 0.621004 0.11402306
1396 0.399681 0.26884633 -0.051252145 -0.39630833 -0.18600181 -0.3862104 0.34452644 -1.212954 0.26516563 0.15931763 0.58510107 -0.61168545 0.04724858 -0.2469339 0.14303912 0.75791204 -0.8062882 0.68273133 -0.32913646 0.58206457 0.82022506 0.31251523 -0.44362688 -0.64507145 -0.7467735 0.71728 -0.6688036 0.58456606 0.51066905 0.81015086 0.21787384 0.04987719 0.18117377 -0.4012468 0.2794549 -0.327055 -0.33950067 0.9326026 0.21494134 -0.02531236 0.1857488 0.5723061 -0.3310603 -0.3519862 0.09476808 0.27485162 0.40744025 -0.16208285 -0.7304325 0.08345034 0.6502414 0.42701748 -0.108708024 0.8569629 0.34354693 0.56728756 0.97739714 -0.8495371 -0.4927174 -0.7459356 -0.2022064 0.48180965 0.6802096 -0.75521857
1498 0.8151951 -0.24507499 -0.26558048 -0.26576933 -0.13037518 0.2843376 0.16125856 -0.39786643 0.2528711 -0.19110146 0.1206274 -0.51643944 0.038026854 -0.25379434 0.015297159 0.090790875 -0.32929388 -0.35176134 -0.73284256 0.15453444 0.4193196 -0.010487367 -0.911921 -1.0959656 0.086271405 0.36637107 -0.45231584 -0.7894412 0.28129598 -0.3374986 -0.09297592 0.08289053 -0.3875164 -0.3282785 0.35730413 0.1459119 -0.6014379 -0.25401965 0.047780737 -0.38924274 -0.13267207 0.09220646 -0.33701286 0.6549548 0.43322724 -0.8256354 0.25623843 0.20289423 -0.031971555 -0.62517846 -0.41811347 -0.96202224 -0.0015873668 -0.63043654 -0.08805123 0.19884737 0.43263695 -0.21739998 -0.489911 -0.045735177 -0.58765125 -0.11599202 -0.051018655 -0.07797475
330 0.38397196 -0.21548775 0.20879674 0.14248453 0.5557671 -0.27672863 0.052021015 0.014734611 0.2181163 0.67204857 -0.0063249664 -0.10702638 0.05073464 -0.2587771 0.33109558 0.9168227 -0.039504513 0.64492863 0.4487399 0.64963543 0.08085203 1.2266146 -0.81819534 -1.0205721 -8.301113e-05 0.08741811 -0.27818537 0.2857969 -0.08276548 0.35983124 -0.25663152 -0.2706119 -0.51364666 -0.073223405 0.20885243 0.7733965 -0.486489 -0.18881263 0.5211795 0.5517738 -0.28756914 0.04854976 -1.0019056 0.0122769205 0.45926282 0.12997444 -0.39741874 0.083262265 0.24237378 0.03134398 -0.11410569 0.13838011 0.3626255 -0.19328581 0.44251344 0.071898706 0.071798995 0.10038774 -0.28450432 -0.4618918 -0.7735535 0.18510152 0.5693325 0.4344067
1301 0.60090023 -0.5712579 0.044741128 0.0045649954 1.1718365 -0.34346956 -0.56213367 0.10667671 -0.064859845 0.8232068 -0.48086753 -0.7827241 0.15146558 -0.11172747 0.041475993 0.7292617 0.037702613 0.535318 0.3340292 0.581696 0.47700045 0.6341447 -0.3973179 -1.0192491 -0.16049702 0.55191725 -0.079657674 -0.0349032 -0.36666957 -0.1719624 -0.22181548 -0.0005585478 0.17948307 -0.58175397 -0.0997795 -0.08309276 -0.2656255 -0.099086 0.6881079 -0.16537888 -0.028792376 0.08199263 -0.78740484 -0.30191353 0.54479444 0.026945086 -0.11012784 0.2578868 -0.052380126 -0.296776 0.3899551 0.14529319 0.25086045 -0.15046988 0.28688064 0.66090715 -0.055442873 -0.09004742 -0.13126387 -0.43526134 -0.589686 0.17817745 0.5046346 0.27082258
1525 -0.08847787 -0.20752609 -0.44520912 -0.3531467 0.22215693 -0.52485996 -0.80565256 -0.35407504 0.45264035 -0.25256824 -0.13265917 -0.399375 0.093472265 -0.055674125 1.0982339 0.35912812 -0.38269702 0.053082366 -0.13904966 0.80914736 0.9249478 0.6158088 -0.6002614 -0.12315681 -0.94732773 0.021325905 0.049009707 -0.3135289 0.37878308 -0.69474566 0.5252622 -0.35487297 -0.6692806 -0.30888474 0.4110369 0.5208515 -0.6767936 0.45438066 -0.27658138 -0.069413245 -0.3130681 -0.021355595 -0.12510014 0.06745037 0.38063323 0.35731244 0.43696824 -0.4576795 0.44136107 0.3182873 0.50123113 0.026019217 0.0016471377 0.007600818 -0.08853269 -0.13433866 0.07801601 0.032610584 -0.9059059 -0.59756154 0.1446897 -0.3877139 -0.04540911 -0.5502344
827 0.3603135 -0.19513448 -0.0026067868 -0.2727703 0.12842691 -0.15400693 0.43967506 -0.12167849 -0.013326673 -0.16487442 0.32929954 -0.32034892 0.5720304 0.04974257 -0.0049311025 0.41233984 -0.85856664 -0.4670994 -0.5222326 0.16799799 0.116767585 0.12010142 -1.0647374 -0.99736834 0.25153795 0.5627672 -0.6229587 -0.4891345 0.23821886 -0.09928061 0.3286041 0.09557094 -0.6408061 -0.08392267 0.21499884 -0.22249486 -0.663019 0.21149254 -0.055208195 -0.620022 -0.3464511 -0.21163337 -0.111128524 0.62173516 0.82276857 -0.36599284 -0.06399091 0.094811894 -0.3149747 -0.024449514 -0.3570967 -0.59238607 -0.09445098 -0.22692017 0.22574772 -0.2604948 0.22305213 -0.47151542 -0.554504 -0.39860296 -0.78597695 -0.09532383 0.14347032 -0.115439296
708 1.0023427 -0.05107486 -0.20628005 -0.3180574 -0.065124445 -0.470966 -0.19341311 -0.52836883 0.11408443 -0.23982088 0.048294567 0.48013753 0.5001159 -0.22073914 0.18996987 0.36393762 -0.56485915 0.3623977 0.21214437 0.30273134 0.71584034 -0.09251531 -0.42534572 -0.11434931 -0.37558708 0.30051443 -0.61363554 0.0012930835 -0.46238893 -0.3772929 -0.6316357 -0.33578664 0.17059362 -0.041320033 0.28431937 0.04538941 -0.20483509 0.34225678 -0.6205255 -0.06885438 -0.41704923 -0.1534633 -0.8462196 0.05923693 -0.32572863 -0.7490027 0.33773807 -0.15262726 -0.058555417 0.3964238 1.029737 0.11815784 0.20146535 0.53184974 -0.0059150723 0.46380568 0.45945176 -0.86227816 -0.8357392 0.45205835 -0.11970349 0.016182672 -0.28878975 0.90730655
564 0.20466492 -0.1890768 -0.3936503 0.11798884 0.8319913 -0.33672032 -0.01932517 -0.2452804 0.018858692 0.7224936 -0.5122853 -0.4828626 0.10060698 -0.1544295 0.017241448 0.33567625 -0.46095967 0.484731 0.18598104 0.46894953 0.32741663 0.7681722 -0.518331 -1.2881284 -0.42537898 0.51867163 0.027111633 -0.055854946 0.010908417 -0.08378686 -0.67227197 -0.16688624 -0.119537525 -0.61705756 -0.4272595 0.58504593 -0.28543428 -0.46185645 0.3890735 0.4394678 0.07848934 -0.29165524 -0.639161 -0.6580136 0.3599658 -0.041702416 -0.67128843 0.0293515 0.36401942 0.22706799 0.14156796 -0.44811597 0.6854349 0.10079273 0.15498462 0.47685432 -0.034371726 -0.16905133 -0.35859483 -0.23377426 -0.2117682 0.3121998 0.6513406 0.20027
1216 0.26237273 -0.25009015 -0.12396221 0.25261512 -0.0998652 0.26809132 -0.38316247 -0.5620088 -0.12440783 0.81209123 -0.32207787 0.47502422 0.02754086 -0.5350054 0.20944306 0.10157952 -0.79345053 -0.15970299 -0.27128077 0.7163836 0.3422626 0.206571 -0.346356 -1.0094892 -0.25102803 0.5681458 -0.23155017 0.042897914 0.35803497 -0.25586444 -0.07542523 -0.40651053 0.28679183 -0.37116402 -0.56295377 0.12435411 -0.6014239 -0.07811834 -0.5775868 -0.82296616 0.28345084 0.31102505 -0.76204157 0.32192406 0.4699965 -0.59982324 0.2990044 -0.15219493 0.5959904 0.14624916 0.22894649 0.58245033 -0.40023822 0.15843295 -0.49137634 -0.18266113 -0.7810185 -0.898467 0.32142293 0.017610874 -0.05338961 -0.64264095 -0.028693791 -0.21151784
1457 0.48474634 0.0101585025 -0.56613564 -0.2891608 0.47267184 -0.36082068 -0.11770805 -0.72152627 -0.08132134 -0.123418726 0.483053 -0.3196824 0.7095251 -0.13388993 -0.33508655 0.87502164 -0.04755859 0.37566328 0.019377312 0.398793 0.45063046 -0.18165067 -0.5883981 -0.54006207 0.050311174 0.30749938 -0.040548798 -0.4221081 -0.4779721 -0.38893408 0.07582341 -0.14886984 -0.27622887 -0.13650917 -0.3598538 -0.27402887 -0.38662198 0.51567477 -0.5458777 0.29716688 -0.04567562 0.1647468 -0.7342558 -0.225984 0.31984285 -0.27935567 0.3926065 0.0034230922 0.2082384 0.13453676 0.8782805 0.3752369 0.60478973 0.35666588 0.11949855 0.12957314 0.708247 -0.49227268 -0.8415582 1.1658039 -0.18687221 0.1321303 -0.26198936 0.47022772
416 -0.25198093 -0.2941303 -0.20351796 -0.19815178 -0.23601472 -0.25427255 -0.73363334 -0.51528645 0.7252667 -0.22779515 -0.31346917 -0.26353985 -0.08125683 -0.077479064 0.8910774 0.6233137 -0.38417354 -0.29437402 -0.26276135 0.62246186 1.1482152 0.7260424 -0.6732357 -0.407212 -0.4632764 0.60249984 0.13031678 0.5762752 -0.030711714 -0.18444152 0.31308633 -0.40825737 -0.25715774 -0.3364951 0.7415674 0.20677042 -0.029275842 -0.10823138 -0.48357543 -0.2680511 0.2583688 -0.25593388 -0.14560454 0.12819047 0.244201 0.30488926 0.5932703 0.032479487 0.38540843 0.39935827 0.96414834 -0.1596652 0.10805005 0.5511412 -0.71770066 0.153864 0.5749693 0.6314327 -0.43275216 -0.48218334 0.05413493 0.100487284 -0.04891464 -0.32645282
188 0.16613932 -0.14136726 -0.027600976 0.38900307 0.30033356 0.58367383 0.03597446 -0.11540398 -0.6076336 0.26493543 0.42986038 0.30473152 -0.08051571 -0.8134878 0.5305227 0.78917617 -0.49030808 0.12273252 0.04047135 0.83341026 0.37247416 0.40326282 -0.39864028 -0.9898151 -0.3366912 0.784672 -0.3660874 0.16909426 0.09811467 -0.12362316 0.14205238 0.34912246 0.3273598 -0.505708 -0.1361921 0.26416713 -0.11952241 0.30717078 -0.12480507 -0.3448278 0.65673727 0.07314613 -0.65370536 0.6532035 0.74375856 -0.19042197 0.031909496 -0.13993566 0.86629236 0.26286706 0.6837523 0.062245566 -0.68144494 0.30229202 -0.28301948 -0.4311038 0.10826873 -0.2593881 0.35653403 0.2770409 0.42904872 -0.2025689 -0.27242005 0.24945995
750 0.200045 -0.24809887 -0.5198621 -0.71487117 0.09831565 0.07972079 0.051976815 -0.4787348 -0.024921523 0.3060176 0.41677317 0.3956897 0.48702088 -0.22480662 -0.1987873 0.927197 -0.7111406 0.51285744 0.08776156 0.03164496 0.5618393 0.07696169 -0.21863948 -0.39718404 -0.34293404 0.035326827 -0.50483525 -0.15809473 -0.03504011 0.17267866 -0.2782069 -0.7529099 -0.4068433 -0.04229405 0.08106105 -0.08955404 -0.2603698 0.15050603 -1.2393789 -0.0058964454 -0.40292093 -0.017566225 -0.4566427 0.12211024 0.5670475 -0.3811276 0.4844419 -0.2726624 -0.004337859 -0.1482151 0.9269295 0.27173752 0.4079368 -0.10525537 0.019147648 0.11124674 0.48346764 -0.81286895 -1.091311 0.8237064 -0.23150407 0.004756855 -0.15490815 0.82696134
1530 0.4947711 0.06179198 0.058896992 0.14978325 0.19494957 -0.28951296 -0.18977106 -0.4226401 -0.0029457794 -0.0137084285 0.25692528 -0.08642661 0.76223963 0.05176448 -0.4529546 0.8608724 -0.33884853 0.48651886 -0.034123473 0.5135681 0.8200318 0.6620158 -0.52870715 -0.24899554 0.10313997 0.42016676 -0.4248004 -0.55507463 -0.7746474 -0.085457794 -0.2746667 -0.57754517 -0.20307639 0.07311577 0.17689309 -0.43445128 -0.081469774 0.11267271 -1.0875921 0.6875659 -0.106606595 -0.04278679 -0.5513226 0.12853952 -0.060294 -0.65273154 0.31811285 -0.2230717 0.21127832 0.03722099 0.75361127 0.24918216 0.35706073 0.5696091 0.1699138 0.24134657 -0.32132536 -0.5335909 -0.8520108 0.84370786 -0.66958827 0.042738747 0.055853397 0.28545967
289 0.6014283 0.19994666 0.13972215 -0.22289808 -0.79279155 0.43990678 -0.4502149 -0.623067 -0.028093558 -0.5330112 -0.46573496 -0.27881208 0.13266131 -0.17434868 0.49453497 0.7559827 -0.70044994 0.2888224 -0.61361307 0.7171341 0.3303114 0.2846498 0.45799306 -1.2391882 -0.49442267 0.44140497 -0.052164678 0.2337348 -0.7685806 0.3139176 -0.02897632 -0.5831907 -1.0368288 -0.10287584 -0.17448165 0.12369077 -0.9037395 0.43569732 0.056906488 0.15057571 -0.24106891 0.02994618 -0.34158885 -0.11460854 0.9243236 -0.16205598 0.791409 0.033174306 -0.20419842 0.4894824 0.33354244 -0.17356995 -0.09751148 0.37737158 0.20061494 0.73629254 -0.7435517 0.116585426 -0.040632647 0.20974578 -0.07743 0.17112759 0.42008567 -0.05510399
1317 0.88316244 -0.24917163 0.0755227 0.28022656 1.2923834 -0.45442107 -0.50302845 -0.58104646 0.3790006 0.66439456 -0.38440055 -0.2159298 0.15936558 -0.034576695 0.010290551 0.7445265 -0.27139726 0.3246545 0.6713591 0.56845284 0.25596315 0.66195846 -1.2294043 -0.6714878 -0.43203795 0.32168517 -0.30875456 0.09540893 0.5585595 -0.034671593 -0.2206932 -0.1666579 -0.0028346577 -0.5567065 0.29807383 0.19699477 -0.5302306 -0.008651477 0.49284008 -0.082642965 0.16857003 0.24935949 -0.7947016 -0.34768716 -0.11332724 0.27028453 -0.5526765 0.2559365 0.20132263 -0.27392545 0.02088636 0.009368898 0.09526574 -0.09041249 0.38949814 0.7583436 0.11462792 0.031228157 -0.46172857 -0.046231218 -0.4868689 0.11281769 0.15514041 0.09556827
455 0.34437615 -0.54079765 -0.19687182 -0.14134827 0.6551635 -0.26000315 0.013109223 -0.28159636 0.30462193 1.0000596 -0.31625712 -0.3961025 0.0073588192 -0.28222778 0.11833017 0.4198305 -0.46236542 0.23379375 0.031493034 1.0139014 -0.18051852 0.5079943 -0.81161886 -1.3671808 -0.18472992 0.44738695 0.15304156 0.13455994 -0.20373382 -0.22318469 -0.30468965 -0.35189342 0.18235235 -0.6913667 0.52924013 0.59785455 -0.84953237 -0.30032945 0.26224214 0.25813586 0.2818632 0.27456304 -0.55715215 -0.6725357 0.20457418 0.40301713 -0.010621214 0.073603846 0.11016351 -0.04352193 -0.06805811 -0.0027381603 0.5464249 0.010848494 0.36569458 0.522384 -0.2164035 0.013208645 0.33978638 -0.20863004 -0.44224977 0.24825178 0.0865969 -0.07542731
874 0.27354127 -0.229987 -0.3848268 -0.18959682 -0.6282957 0.08237074 0.042170294 -0.18904261 -0.13520584 0.010596846 -0.41089028 -0.37064946 -0.12980114 0.06322535 0.8065548 0.8023192 -0.23326974 0.6520427 -0.8277631 0.6375791 0.33283475 0.08109478 0.24217145 -1.0749657 -0.46744367 0.22334872 -0.41184956 -0.15607691 -0.73736703 0.4971861 -0.24890509 -0.12100267 -0.7677558 -0.6319224 -0.29575446 0.4019094 -0.47666 0.03829899 0.13154335 0.3429312 -0.46590555 0.28717417 -0.36189646 0.07551185 1.3049196 -0.45744723 1.0464801 0.24544957 -0.27455896 0.62957704 0.30843005 -0.04934576 -0.108500615 0.8066992 0.19118553 0.1731818 -0.11944345 0.2611215 -0.04513736 0.5662908 -0.14866202 -0.19813731 0.8454005 0.061540283
96 0.27787277 -0.34951934 -0.33148134 0.27557042 0.79682904 -0.5441995 -0.40240046 -0.4922821 0.43389618 0.9791543 -0.46090734 -0.23343204 0.28554118 -0.2800668 0.3737351 0.712993 0.3447207 0.3966702 -0.24314414 0.44057813 -0.34060436 0.4415584 -0.7214566 -1.3273526 -0.41256148 0.09542724 -0.23024948 0.039547607 -0.10615209 -0.05829576 -0.2649918 -0.46422803 -0.06062794 -0.38941026 0.09246484 0.6626541 -0.013713997 -0.09626615 0.05640399 -0.22810657 -0.20686045 0.02401387 -0.8002359 -0.77802664 0.28868374 -0.028863965 -0.09485708 0.09615466 0.16717505 0.108628534 0.011091799 -0.10014362 0.19888468 0.023485307 0.5582938 0.3320141 0.30445492 0.028329635 -0.278053 -0.62054116 -0.9634622 0.0059098597 0.30011255 0.07574321
1065 0.6376026 0.21038336 -0.34498778 0.25907162 -1.1755297 -0.20867804 0.07347839 -0.19219029 -0.4560406 -0.33265862 -0.4473338 -0.28008428 0.08076981 -0.6636913 0.16403589 0.41394278 -0.64880675 0.14426549 -0.5900328 0.742185 0.43565017 0.32186654 0.24085459 -1.0028402 -0.8337884 0.2798394 0.20610574 -0.0745464 -0.845224 0.19488911 0.52057046 0.12475426 -0.9337453 -0.68069565 -0.14806898 0.43026623 -0.84359586 0.32121792 0.09095446 0.14516819 -0.42052957 -0.010237995 -0.52042407 -0.18160753 1.2223344 -0.29640585 0.29357263 -0.064195 -0.26782885 0.22517172 0.34485608 -0.22525963 0.22609873 0.5500145 0.042300418 0.6966951 -0.072665244 -0.15494898 0.16240539 0.22881302 -0.104465514 -0.0836704 0.52934617 0.20570302
633 0.2972967 -0.35508716 0.11150897 -0.70308685 0.26361823 -0.4275428 0.3290569 -0.5898767 -0.13211676 0.15853387 0.40279078 0.27860293 0.43679753 -0.43050298 -0.12883022 0.3167668 -0.48741087 0.6305992 -0.03023201 1.129148 0.8302514 0.05224113 -0.13107184 -0.42166266 -0.04263496 0.16644685 -0.0491814 -0.3329077 -0.28957093 -0.8076329 -0.1299695 -0.59258616 -0.47350818 0.2858163 -0.067692444 -0.17194058 0.08831823 0.055358946 -0.73473924 -0.0667222 0.013168921 -0.41322702 -0.49548128 0.0016054147 0.13783543 -0.5160297 0.3075713 0.1720756 0.14187737 0.04923672 0.58863026 0.046530608 0.35064462 0.24240103 -0.11744797 0.5132859 1.187006 -0.6961118 -0.8982444 0.9763565 -0.20100835 -0.040456817 0.15307365 0.44156238
856 0.49584085 -0.33259144 0.101472296 -0.1204174 0.6557704 -0.104942165 -0.11589556 -0.5615769 0.33998683 0.3275421 -0.691405 -0.06105523 -0.099761985 -0.32495004 0.38635212 0.47750494 -0.35355118 0.41157073 0.74545085 0.79103863 -0.0518756 0.7751988 -0.7835455 -0.8346499 -0.1790108 0.057125457 -0.25230828 0.18373637 -0.03729663 -0.4811882 -0.42096996 0.078297995 -0.6434561 -0.48142987 -0.18051098 0.33612433 -0.5826727 -0.17973553 0.5570587 0.32450792 0.10320258 0.0028682698 -0.89452827 -0.43675014 0.31503147 0.0984207 -0.37210044 0.5693848 0.006222425 0.14062418 0.022986475 0.31621063 0.222142 -0.23518865 -0.11795359 0.26587155 -0.28507736 0.09014602 -0.43898153 -0.12707366 -1.2610689 0.0090530105 0.033776145 -0.22657302
1267 0.4649098 0.2756627 0.49875993 0.15235925 0.036438007 -0.12900007 0.59598 -1.0706444 0.2635408 -0.015497663 0.19008522 -0.5969873 0.07614279 -0.52182037 -0.15812035 0.46566844 -0.78677744 0.99154264 -0.21404286 0.3190952 0.83000445 0.85551465 -0.60305655 -0.7333061 -0.41171566 0.52020985 -0.72680765 0.4571201 0.15082982 0.521039 0.12917267 0.012466894 0.21468686 -0.53747535 0.11687206 -0.06834268 -0.4928862 1.2344288 0.1622598 0.3921896 0.24897137 -0.1536767 -0.5132726 0.15884583 0.16614453 0.3253939 0.51107854 0.15720066 -1.0696542 0.53211457 0.19242685 0.5984654 -0.30772194 0.50694007 -0.1385382 0.05817729 0.7094333 -0.85793126 -0.9028437 -0.64287084 -0.016560493 0.2768693 1.0635914 -0.73958325
1091 0.21452358 -0.49136925 -0.015255126 0.5059413 0.7989729 -0.45197216 -0.40815452 -0.9018957 0.22774073 1.1398679 -0.41880926 -0.028603798 -0.04537613 0.061790332 0.095220946 0.9922046 -0.12093935 0.5705797 -0.025592053 0.67858803 0.62825465 0.5893533 -0.8844874 -0.9259772 0.002718197 -0.1921047 -0.063364625 -0.14163764 -0.0019729955 -0.018157737 -0.5065201 -0.43130448 0.26649368 -0.20976904 -0.37243053 0.05669433 -0.24124137 -0.6105553 0.26708925 0.1963353 0.34782156 0.17809677 -0.6844172 -0.049036402 0.48165944 0.21643047 -0.59772813 -0.31808242 -0.20093271 -0.022020554 0.4316969 0.0032458962 0.26591662 0.045382194 0.04727893 0.38730413 0.07503415 0.6440145 -0.4186269 -0.026950143 -0.83892727 0.11616766 -0.052307278 0.04653874
755 -0.0347664 0.46866193 0.40965852 -0.17327935 -0.25794852 -0.2048109 0.17826106 -1.1743797 0.63648254 0.4344773 0.7610232 -0.1764851 0.603397 -0.11299203 0.16261928 0.94374907 -0.3195208 0.77871996 -0.0742094 0.3662585 0.89510065 0.05190525 -0.13788453 -1.3160568 -0.44369316 0.8552714 -0.94894546 0.37361655 0.38842115 0.18448101 0.7989075 0.4781344 -0.30070615 -0.6108293 0.42411214 0.09506191 -0.3324706 0.4700997 -0.29596895 -0.012930599 0.02443643 -0.11692413 -0.5831759 -0.72330093 -0.35977137 0.12214841 0.000612614 -0.268572 -0.6868012 0.41028687 0.5042931 0.2511736 -0.6502802 0.5004761 -0.11762065 0.2818895 0.13874543 -0.5453048 -0.69738865 -0.15021795 -0.15669695 0.6590347 1.0870934 -0.8484833
601 -0.27656135 -0.19673818 -0.022898514 0.03681969 0.35163182 -0.08554982 -0.48759434 -0.503475 -0.080279864 -0.65868807 0.10866559 -0.3522194 -0.4962872 -0.35352993 0.5886504 0.7218661 -0.21366183 -0.10748259 0.051909655 0.5573974 1.3395951 0.80015546 -0.9231138 -0.24361615 -0.42299536 0.32196105 0.31015134 -0.3399942 0.036963984 -0.16578655 0.11863843 -0.1126493 -0.5428545 -0.012973572 0.65200007 0.17186302 -0.33039418 -0.019581592 -0.25112924 -0.24318306 -0.13761495 0.111618094 -0.3146805 -0.3836015 0.5504371 0.38145727 0.82051057 0.19548273 0.4374138 0.38462508 0.4508321 -0.10775769 0.35284895 0.41816443 -0.21465719 -0.2073384 0.410001 -0.027366709 -0.8454771 -0.44799986 0.31354377 -0.7558594 0.6684082 -0.3102543
1277 0.3443388 -0.083792984 -0.15930076 -0.13777849 -0.024099583 -0.41260266 0.009020251 -0.52916783 0.16818136 -0.28836614 0.15748307 -0.28279525 -0.1304485 0.11297834 0.28938913 0.37747315 -0.29403904 -0.76255065 -0.56639874 0.22777852 0.86952543 -0.15365875 -0.701309 -1.3921386 -0.10078889 0.6828437 -0.59990025 -0.5231663 0.5950818 0.37472168 -0.3449906 0.1972408 -0.01861714 -0.097907156 0.33513355 0.22214644 -0.9037198 -0.10721895 0.23110838 -0.532304 0.09928792 0.04479156 -0.31053606 0.63913643 0.9408226 -0.3804869 0.022006707 0.26933157 -0.18514676 -0.25877365 -0.5084986 -0.9645263 -0.32317972 -0.20966892 -0.105751134 0.2525806 -0.16906877 0.3004415 -0.5145605 -0.77452594 -0.6004021 0.26651502 0.4571253 -0.34947366
1394 -0.041830845 0.20103557 0.07793154 -0.29300874 -0.28768548 -0.5869603 0.43544436 -0.94899744 0.22402047 0.1063442 0.17466046 -0.26710346 0.40412602 -0.5583389 0.26027408 0.7216466 -0.96344596 0.6346758 0.18296516 0.5895028 0.45029113 -0.058006395 -0.7036224 -1.1453397 -0.24780804 0.794624 -0.8911908 0.63327163 0.19973159 0.22528829 -0.052899834 0.27304795 -0.13273312 0.0020630632 0.6949838 -0.44517672 0.09908175 0.23081431 -0.5886977 0.52840656 0.15295891 0.33991432 -0.683014 -0.40837035 0.29608423 0.24121913 0.5637548 -0.064940125 -0.4182258 0.22290888 -0.117221616 0.6315223 -0.47827938 0.28940272 0.4923734 0.43754712 0.54421926 -0.7233752 -0.62786674 -0.69183916 -0.049965173 0.18267493 1.6198437 -0.73248845
691 0.4381082 -0.21222766 -0.22926155 0.64996886 -0.07425135 0.13166645 -0.3096422 -0.8152486 0.025411744 0.08121765 0.19598004 0.46634987 -0.1984844 -0.61932427 0.6380717 0.19533187 -0.57331353 0.014162672 -0.15469238 0.46191326 0.5715191 -0.24150863 -0.31160495 -0.70679814 -0.62598777 0.9550078 -0.83634686 0.3619396 0.34334305 -0.43994042 -0.5142758 0.09749904 -0.09377881 -0.21549004 -0.34323308 -0.0169744 -0.24357206 0.029677982 -0.3195469 -0.26493233 0.39215264 0.6724245 -0.43871003 0.90537304 1.0565652 -0.264361 -0.27853274 -0.17141104 0.91934854 0.28657204 -0.068576165 0.32510325 -0.051312096 0.13360147 -0.24861042 -0.4325258 -0.37229493 -0.089800425 0.106934674 0.33033657 0.17120232 -0.12036658 0.2641709 0.5025113
1074 0.55516016 0.20073362 -0.015799392 -0.57638717 -0.4376256 -0.5890725 0.8552388 -1.1792847 0.7229768 -0.25590003 0.5054164 -0.49524316 0.34302533 -0.82621336 0.46435007 1.0432619 -0.5927255 0.7799574 0.018388117 0.6298558 0.34064987 0.33460984 -0.6204834 -0.7748954 -0.5186763 0.19490269 -0.38565406 0.8093618 0.7815248 0.7064605 0.47738197 0.296192 -0.08797165 -0.40902418 0.2073637 0.22710048 -0.83767045 0.41153067 0.048728626 0.5125559 0.30631852 0.26168147 -0.50772035 -0.098913975 -0.053668465 0.14925475 0.43707845 0.103206515 -0.32149354 0.21481182 0.29536647 0.3871241 -0.40522832 0.59717244 0.3709976 -0.1033026 0.5513908 -0.84406805 -0.7018466 -0.3915736 -0.15980108 0.5255488 0.7129375 -0.5284089
1090 0.7027038 -0.40256768 -0.18698515 0.4196229 0.69813347 -0.32573724 0.24475642 -0.68154424 0.124384165 0.806444 0.16455013 0.18875615 -0.065747134 -0.15002672 0.62177974 0.76637435 -0.011231694 0.60955554 0.35665363 0.2958258 0.24004765 0.771905 -0.5126917 -1.1276705 -0.39683732 0.11710207 -0.1754773 0.04223794 -0.007842025 -0.35697395 0.23111151 -0.11362805 -0.0067936806 -0.46611872 0.15022482 0.5217427 -0.05693773 -0.24176095 0.3971414 0.05931812 0.29756048 -0.06488996 -0.8347914 -0.51430494 0.50865024 0.20475899 -0.33425173 0.096374735 -0.066875614 0.45513442 -0.073867805 -0.07139566 1.0054322 -0.26569822 -0.17745556 0.43222803 0.17471848 0.3428278 -0.3791338 -0.0492126 -0.5512634 0.66485566 0.21052243 0.5041348
1047 0.038424794 -0.03233233 0.39608473 -0.7650234 -0.050426956 -0.6621448 0.7500808 -0.79870754 0.4205157 0.3643229 0.33891183 -0.10216869 -0.029332211 -0.9330234 0.40868008 0.9406191 -0.51113665 0.45860922 -0.09252809 0.3003634 0.33137327 0.33674625 -0.46973667 -1.1962774 -0.43633902 0.6470047 -0.89996684 0.78781915 0.90787756 0.19118388 0.5354188 0.1319091 -0.4521313 -0.26077682 0.5123637 -0.2315718 -0.4769104 0.52474916 0.0925203 0.77543 0.32971403 0.19080864 -0.3957366 -0.11994496 -0.056269072 -0.09056664 0.65394336 0.12926562 -0.45218027 -0.09609948 0.4321421 0.2161809 -0.23588331 1.2670083 0.26104948 0.2868966 -0.023301708 -0.87168247 -0.8619035 -0.39830858 -0.12904185 0.29521984 0.72478503 -0.69795454
1369 0.40937477 -0.19761 0.085986786 0.0038313023 -1.0270132 0.011110038 -0.21150091 -0.07376072 -0.3084857 -0.12933967 0.55792683 -0.22900257 0.032079484 -0.49804744 0.47518983 0.83463824 -0.46990082 0.08594213 -0.2548267 0.4461989 0.1779601 0.30412433 0.52274233 -1.1834849 -0.7284889 -0.13026759 -0.37814474 0.24454597 -0.71712565 0.30397713 0.14188717 -0.39091808 -0.68215084 -0.94488984 -0.17803998 0.29955333 -1.0194936 -0.3851978 -0.45348695 0.07505951 -0.57464653 0.2600101 -0.43812 -0.09378776 1.1310481 -0.30137005 0.5067104 -0.39119267 -0.28308314 0.9607345 0.36204767 -0.5573024 0.18218713 0.6529422 0.71430975 0.18595193 0.015014246 -0.04972907 -0.053033106 0.17455393 -0.35938483 0.14845784 0.40439498 0.014677613
1417 0.16928104 -0.4090659 0.15711504 -0.0202948 -1.0825977 -0.13484459 0.12696023 -0.2669353 0.048427206 -0.5221364 -0.24745598 -0.82421505 -0.06907207 -0.23074563 0.30228245 0.71877205 -0.03766496 0.42036483 -0.7844441 0.4869692 0.43222815 0.6041875 0.59950674 -1.3022921 -0.22669081 0.37981167 -0.4128943 0.277051 -0.24882872 -0.33150008 0.018790014 -0.24416691 -0.8350466 -0.58198726 -0.22856948 -0.112683095 -0.67804736 0.3676627 -0.3714122 0.12811835 -0.19370982 -0.2839632 -0.28886828 -0.103787586 1.4188025 -0.4936913 0.03278617 0.064221755 -0.3264683 1.0795677 0.34256566 -0.10375876 0.3678251 0.3810038 0.16375703 0.6915648 -0.46594894 -0.021158662 -0.26945144 0.21517433 -0.119581886 0.12659192 0.40926778 0.2318029
783 0.19332285 0.33915275 0.26869017 -0.32193664 -0.38903537 -0.8413883 0.5405503 -1.0776129 0.22578062 0.00800307 0.36253238 -0.20504491 -0.0004892512 -0.8720651 0.37423834 0.57005984 -0.44374064 0.44546482 -0.07970738 0.20558159 0.42467877 -0.04605354 -0.9839394 -0.69373506 -0.297816 0.8539316 -0.80071276 1.0645276 0.17558116 0.035976056 0.023432013 -0.115449905 -0.3165699 -0.4636853 0.26330462 -0.12500475 -0.5717867 0.45298418 -0.23202224 0.56180376 0.69212806 0.5190233 -0.63927966 -0.03267698 0.3712239 0.09006341 0.42480475 -0.34570953 -0.8379389 -0.11864175 0.24682422 0.5215782 -0.28863066 0.33845642 0.77734727 0.18127522 0.7162299 -0.73337066 -0.898544 -0.5329452 -0.27505937 0.5728643 0.8894473 -0.75693655
84 0.9211475 0.23128673 -0.109550744 0.37313974 0.18860942 -0.03687121 -0.28166303 -0.24600495 0.6933319 0.7451303 -0.4778008 -0.37259176 -0.28236443 -0.12442447 0.48197192 0.9755142 0.018702688 0.3562762 0.048558928 0.520226 0.04208066 0.8816357 -0.66821665 -1.0128433 -0.45610866 0.37613022 -0.24201687 -0.07370315 0.16118349 -0.23687677 -0.8504033 -0.055749062 -0.123135254 -0.32167807 0.041903578 -0.08077264 -0.4012519 -0.03664499 0.12879825 -0.019682432 0.14247158 -0.27661064 -1.1531435 -0.5532731 0.15717275 0.21388897 -0.66798 0.09727866 0.1007888 0.3589497 0.096350886 0.24905717 0.60993266 0.17160726 0.18934841 0.62459457 -0.16383865 0.374903 -0.27711535 -0.6760947 -0.51474124 -0.13285248 0.3113194 0.40389556
1473 0.6574245 0.17246528 0.06870405 -0.28309312 -0.9779662 -0.06620907 -0.27541855 -0.09872859 -0.046551842 0.18257324 -0.09429455 0.2964448 -0.39337572 -0.11244178 0.11188515 0.5601935 -0.057137504 0.39898002 -1.0936812 0.81138045 0.4480836 0.2953538 -0.04918996 -0.48926777 -0.5019869 0.39382607 -0.27598208 0.667891 -0.5163706 0.26676613 -0.16430141 -0.41984552 -0.6415811 -0.5670884 -0.21184753 0.44456285 -0.53790146 0.35295928 -0.37837714 0.44357848 -0.596918 0.11876735 -0.33667266 0.028586335 1.509444 -0.49243572 0.87087315 -0.08328784 -0.53499633 0.57467866 0.22163995 -0.34213722 -0.26600692 0.61207104 0.21069793 0.8219529 -0.4817413 -0.10874431 -0.3416209 -0.24336284 -0.5215998 0.053735875 0.26213282 0.25951576
252 0.29149354 0.2074219 -0.15628342 -0.4847346 0.30566403 -0.6944467 0.28692225 -0.29420942 0.07675339 0.049076892 0.028553778 0.3736261 0.4020989 -0.313784 -0.3585696 0.48431736 -0.878058 0.18138885 0.07240874 0.69670504 0.4316922 0.14350648 -0.27656597 -0.60779524 -0.25702986 -0.00924424 -0.6241254 -0.4437965 -0.44156808 -0.4143047 -0.12701233 -0.29032955 -0.6595577 -0.28011456 0.57442147 -0.39666864 0.017892819 0.5148117 -0.93178236 0.13469568 -0.26101762 0.31575522 -0.4318556 0.20541418 0.2828694 -0.22437859 0.2588034 -0.3186866 0.38386586 -0.15422213 0.41604722 0.49507716 0.4071834 1.0002341 -0.2142531 0.044886548 0.7011419 -0.3685228 -0.67552876 0.8011233 -0.1691185 -0.3437765 -0.058000833 0.81823665
1411 0.2850636 -0.1800485 -0.049419705 0.25383252 0.8001685 -0.43624443 0.20478167 -0.5125207 -0.08208786 1.0102284 -0.40475923 -0.56926316 0.22907288 0.1880351 0.5430568 0.55227 -0.18881859 0.430186 0.35459712 0.5640021 0.20742203 0.48849392 -0.82252204 -1.5655885 -0.0244219 0.5831151 0.09443683 -0.023731774 -0.25831595 -0.23644836 -0.022527834 -0.06647112 0.015210958 -0.7111916 -0.30023813 0.079656616 -0.5165992 -0.049610227 0.1186154 0.25569275 0.21942507 0.3511453 -0.3293899 -0.4468459 0.50990874 0.21241982 -0.2543032 -0.18154594 -0.22093523 -0.7297557 0.2881812 0.027140941 0.48399615 -0.1629219 0.27431637 0.53487587 -0.18962681 0.12039099 0.040463068 -0.5132062 -0.6030362 0.07097468 0.00013817954 0.26172677
268 1.0812443 -0.0005753364 -0.38217905 -0.2629442 -0.3158544 -0.29392353 0.18989994 -0.19544345 0.19357255 0.5046185 -0.088786535 -0.061302863 0.6896936 -0.60520935 -0.4689961 0.41086724 -0.6465754 0.6676718 0.24633156 0.5887678 0.18875124 0.10454361 -0.6137258 -0.17953545 -0.19530769 0.2975743 -0.39751092 -0.25852677 -0.8061411 -0.6421901 -0.2508776 -0.18198262 -0.41032204 -0.33780703 0.20127593 -0.35110542 0.043367956 0.26127088 -0.7942911 0.2696196 -0.20346184 -0.20763712 -0.66402376 0.1750636 0.6629477 -0.2564419 0.3839496 0.05712703 0.4754428 -0.29883277 0.73015684 0.40740675 -0.21870849 0.29690245 0.2584974 -0.4350756 0.45958042 -0.42988992 -0.65665543 0.9968448 -0.29046887 0.30565056 0.017031947 0.43056557
1193 -0.10158872 0.03688298 0.1194452 -0.2362858 -0.5371095 -0.28022143 0.5975432 -0.62870497 0.02191829 0.48955092 0.52788836 -0.53025687 0.43113843 0.05494464 0.2610659 0.46273145 -0.55757356 0.85391223 -0.2073729 0.5201126 1.101182 0.013027047 -0.7211439 -1.0089121 -0.75022346 0.39143458 -0.99744445 0.63684726 0.2598868 0.33423766 0.13174045 0.552091 0.32736006 -1.1605494 0.6866497 -0.3162157 -0.19459334 0.72130823 -0.12246022 0.3346794 0.46552303 0.21900171 -0.5892453 -0.4083771 -0.15430036 0.26882613 0.75848204 -0.24498186 -0.638213 -0.049075153 0.27760312 0.31659305 -0.30557477 0.7313285 0.32986167 0.082475275 0.210356 -0.7458944 -0.88981605 -0.39785507 -0.27414167 0.51760715 0.95157194 -0.41217327
852 0.509578 0.023003278 -0.41112393 0.42611614 0.088916995 0.34268463 -0.5638449 -0.19643518 -0.43772906 0.28819743 -0.1799586 -0.113763 -0.13886546 -0.38673145 0.5378311 0.3758161 -0.8003615 0.28911766 -0.29059872 0.27952746 0.35142782 0.07001991 -0.10729525 -0.5869441 -0.7531697 0.5630906 -0.8628315 0.23808475 0.5833786 0.13923232 0.17461815 -0.04131387 0.6303 -0.88131994 -0.24033949 0.29781362 -0.6131882 0.18987752 -0.4963215 -0.43251985 0.30258617 1.053039 -0.6793631 0.42121813 0.7794956 -0.029478159 0.14283301 -0.23148851 0.618109 -0.38530967 0.58582926 -0.060653295 -0.31119373 0.20571432 -0.6597702 -0.32248446 -0.2944113 -0.47607872 0.20795369 0.30209818 0.22193283 0.22291267 0.112481214 0.029781446
422 0.72479326 0.29880092 0.46803582 0.11294449 0.023747472 0.03960999 -0.28599158 -0.33567795 0.4388528 -0.38121346 0.38424703 -0.20566113 -0.221061 0.06436237 -0.19034639 -0.14996856 -0.71408933 -0.2828189 -0.6693791 0.11600167 0.6181135 -0.2040041 -1.1778328 -0.8890277 0.06093216 0.52932715 -0.5558617 -0.2788117 -0.074519314 0.08886487 -0.13780473 0.045891225 -0.5740089 -0.33092186 0.15188542 -0.27302787 -0.46039194 -0.09257706 0.11235217 -0.39320415 -0.13761404 -0.14811845 -0.43770427 0.43814746 0.5845582 -0.36673215 -0.0948222 0.6240232 -0.04104529 -0.7305031 -0.20809308 -0.5561501 -0.13545212 -0.022869434 0.21387148 0.56960136 0.12021645 -0.2684491 -0.6400641 -0.1734362 -0.6018311 0.18063183 -0.64385533 -0.5122915
9 0.8885828 -0.1950855 -0.3367946 -0.03720539 -0.0027375023 -0.23258221 0.4597543 -0.5037483 -0.040060584 0.11895632 -0.1545357 0.2402393 0.47734824 -0.2520169 -0.14984068 0.4375849 -0.17390966 0.6364653 0.55517703 0.6695364 0.5783991 0.12636152 -0.21899046 -0.087203816 -0.45984328 0.27018058 -0.63798004 -0.22136228 -0.5174349 -0.23452051 0.15941781 -0.6537447 -0.06505352 -0.46247232 0.45450127 -0.051707044 -0.11221228 0.36630064 -0.66911036 0.585677 -0.48436818 -0.23128588 -0.58591646 -0.14883864 0.3255522 -0.5837504 0.3551342 0.083583266 0.266059 0.2696909 1.1586891 -0.3761759 0.18885298 0.0026135577 -0.32309952 0.26655978 0.767103 -0.8129977 -0.3778233 0.97124094 -0.45031485 0.20304786 -0.3986181 0.25771776
548 0.56067246 -0.02059441 -0.017254338 -0.24434936 -0.5437514 -0.097537115 -0.11092702 -0.03908002 -0.3887876 -0.2715411 -0.5558513 -0.41101685 0.056951072 -0.47542027 0.629302 0.450398 -0.09880277 0.3968878 -1.009218 0.54509276 0.5688591 -0.21129616 -0.2325864 -1.2892443 -0.6217719 -0.063867345 -0.24272938 0.21027182 -0.9414002 -0.16364482 -0.24934416 0.04556231 -0.7368162 -0.23839188 0.11422669 -0.04894392 -0.86980134 -0.009485153 -0.5972388 0.29625168 -0.44878826 0.6973049 -0.3595397 0.052926317 1.1394753 -0.61696833 0.6575311 -0.6064719 -0.8013363 0.23108646 0.49351728 -0.04279531 0.30953315 0.7030296 -0.051106606 0.6456777 -0.27558693 0.28244948 0.16806856 -0.101935625 -0.197654 0.008323562 0.36452436 0.040051147
1236 0.34138435 -0.17809018 -0.36811808 -0.3828483 -0.17431049 -0.22245127 -0.7274227 -0.8034074 0.3056441 0.27067104 0.34678957 -0.16597848 0.5525769 -0.24265143 0.048480276 0.7081019 -0.28944957 0.6292884 0.27138767 0.86569047 0.40962157 0.25339705 -0.07110086 -0.4163026 -0.16298398 -0.07918135 -0.36398208 -0.6537625 -0.26262224 -0.32864213 -0.07231592 -0.13511004 -0.5833762 -0.14011861 -0.025445405 -0.12642516 0.0974447 0.3786832 -0.46064842 0.52317345 -0.11903717 0.14579605 -0.4520695 0.08379526 0.14809886 -0.7558064 0.24873573 0.081915036 0.40419194 0.20170331 0.3210196 0.8802791 0.24714805 0.46876842 0.10034817 -0.034091365 0.33844426 -0.9045016 -1.1265943 0.8450644 -0.1836146 0.13500667 -0.76653254 0.2809325
399 0.5931358 0.24652666 0.054899745 -0.024171835 -0.7995374 -0.12604196 0.49707964 -0.2136868 0.26184428 -0.3813756 -0.6369929 -0.4243648 -0.26453525 -0.21735927 0.44079873 0.8661691 -0.16673931 0.33066452 -0.8627351 1.0275868 0.27562296 -0.2878187 -0.03844954 -1.0943384 -0.63336366 0.40753436 -0.39210984 0.08484346 -0.8293427 -0.12397069 0.20200147 -0.55851966 -0.78059155 -0.13013792 -0.14353567 0.16154099 -0.43915915 -0.48839563 -0.3918939 -0.0706385 -0.41563442 0.0038778035 -0.32093838 -0.036000315 1.1451286 -0.22500779 0.16347581 -0.56607705 -0.73555017 0.7459075 0.33221713 -0.1316902 -0.005875853 0.7314346 0.17998281 0.5227688 -0.5905381 -0.10266923 -0.013540233 0.077410474 -0.08112929 0.2077055 0.4268631 0.3952226
999 0.4906414 -0.034564488 -0.2046587 0.3226721 0.5195148 0.14523472 -0.031416886 -0.530154 0.016718699 -0.07534772 0.14927645 0.325023 -0.41620877 -0.5753326 -0.13874 0.22401619 -0.5104974 0.45551726 -0.4004704 0.30077985 0.49375442 0.0033962103 -0.4639332 -0.89392406 -0.28096876 0.6433695 -0.6058793 0.13931924 0.2449626 -0.16165237 -0.0120745255 0.4588563 0.16577594 0.026876062 0.0030015716 0.23056044 -0.6797805 0.024558607 -0.33465207 -0.82732564 0.45544073 0.30929422 -0.8826942 0.24116857 1.1551226 -0.31933734 0.33445284 0.04912914 0.72421366 0.5742701 0.36075824 0.7753237 -0.651361 0.115888506 -0.8166089 0.175478 -0.39018595 0.0434235 0.049791917 0.6763194 0.34115085 -0.20319511 -0.30978036 0.039094847
825 0.08753582 -0.09229608 0.3515444 -0.50460756 -0.3437427 -0.08124567 0.10213602 -0.24338381 -0.16527912 -0.349061 -0.032630045 -0.4500762 0.045824584 -0.32991964 0.19658259 0.5293443 0.0112852305 0.33409223 -0.9494851 0.51451504 0.6506176 -0.14053798 0.2932261 -1.0394311 -0.73452234 0.42627046 -0.045985878 0.24745268 -1.3179116 0.4898464 0.038493637 -0.053632434 -0.35810876 -0.7048349 -0.37319952 0.25157544 -0.48058593 -0.2450869 -0.16902387 -0.1671801 -0.6655459 0.14315522 -0.807131 -0.50792855 1.3731096 -0.5707008 0.4580066 0.15028602 -0.614895 0.2850294 0.7635866 -0.030486152 0.22713405 0.8703029 -0.10714121 0.28374508 -0.006938097 -0.12451335 -0.17392711 -0.33124772 -0.2612805 0.16954811 0.46577373 0.21187024
724 -0.34804982 -0.016979074 -0.3880416 -0.25739512 0.3295662 -0.15576169 -0.3198615 -0.51057386 0.68031585 -0.123321585 -0.2978144 -0.49708006 -0.33571136 -0.21465613 0.6110929 -0.043893196 0.1396635 -0.23734036 -0.009794497 0.8199679 0.98567045 0.35224366 -0.6041538 -0.2510982 -0.58380216 0.9457802 -0.009955295 0.15348941 0.16799718 -0.49022594 0.6960726 -0.99540275 -0.33054206 -0.8300486 0.36803836 -0.15138674 -0.35964566 -0.28463116 -0.42263362 -0.0853736 -0.3932827 0.12109008 -0.27330163 0.16857404 0.81741226 0.870421 0.008684459 -0.10461959 0.039507445 0.025488703 0.29529473 -0.04670189 0.10156194 0.3059665 -0.5894918 0.129582 0.49404845 -0.1794571 -0.8266603 -0.14342158 0.15952386 -0.31341657 -0.09774912 -0.68343824
1242 0.61126316 -0.56337816 -0.03197412 -0.19271232 0.122323915 -0.31536955 -0.17253162 -0.36628288 0.23242122 0.26308322 0.26667485 -0.22649504 0.50498635 -0.58065647 0.31622592 0.48616418 -0.45392114 0.0023831415 -0.50880086 0.6078462 0.5049286 0.069352895 -0.58524084 -0.021022834 -0.16297287 0.49584103 -0.1091412 -0.39586255 -0.4744313 -0.11302835 -0.20477462 -0.4933761 -0.42967603 0.14892036 0.28809476 -0.01983574 0.17307144 0.6745785 -0.41360316 0.58128893 -0.17489068 0.29422063 -0.48630002 0.3316304 -0.14360337 -0.30812338 0.009087563 0.3093828 0.44058007 0.013065058 0.8887795 0.46683303 0.19484869 0.2503185 -0.20479354 0.42055836 0.5801846 -0.7482282 -0.9798119 1.0028541 -0.6472129 0.04073958 -0.06452529 0.9169713
471 0.4248454 -0.5685399 -0.14929076 -0.2860283 -0.51958907 -0.15303898 -0.010107355 -0.45245585 -0.053663697 -0.21457145 0.1938657 -0.11815934 0.19258258 -0.18381329 -0.27229264 -0.041601524 -0.28014764 -0.11910084 -0.44868892 0.279427 0.5513626 -0.28895044 -0.8411753 -1.2419252 -0.086905405 0.7804848 -1.173648 -0.62268615 0.3204403 0.28178734 0.35490304 -0.3110527 -0.08067326 0.112278126 0.10150321 0.5061788 -0.0234302 -0.06971236 -0.044154044 -0.33970782 -0.49888897 -0.14933874 -0.01814806 0.75639075 0.69171685 -0.047236126 0.04281336 0.042493064 0.07309674 -0.67752796 -0.066781476 -0.6050033 0.19452283 -0.083094396 0.1444189 0.04285429 -0.05047286 -0.22748867 -0.76419187 -0.113596804 -0.8315708 0.31503102 -0.45950788 -0.07232749
1082 0.4385057 0.22284818 -0.17524238 0.0027930841 -0.011034451 -0.2847169 0.23532295 -0.29621044 0.23899095 0.22880495 0.21273069 -0.33495292 0.22764765 0.16015743 0.41580695 0.5265546 -0.6750977 -0.38926923 -0.98017555 0.15479535 0.34822643 -0.117675155 -0.8319132 -1.4130282 0.23379661 0.69369346 -0.77943754 -0.1483841 -0.1747044 -0.08268562 0.25339067 0.30611193 0.17205973 -0.09425035 0.3254685 -0.32386038 -0.3628995 -0.24955098 0.24112211 -0.1414448 -0.16287784 -0.3758093 0.047641575 0.5949585 0.42864025 -0.33202323 0.19224562 0.3439498 0.04751932 -0.44205058 -0.033389647 -1.053181 -0.26197264 -0.20515361 -0.34605095 -0.24680065 0.095059045 -0.07408311 -0.5810726 -0.33616573 -0.51073605 0.48388854 -0.079047345 0.10684429
704 0.43525913 -0.10092465 0.122257315 0.20253342 -0.7490049 0.1449223 0.19448842 -0.45132473 0.24681802 -0.1447893 -0.036616538 -0.24302346 0.18408121 -0.110006765 0.04835514 0.26197895 -0.58868694 -0.41177726 -0.12579536 0.31668693 0.2150649 -0.14413996 -0.87831956 -1.1027915 0.056492627 0.028332362 -1.0936811 -0.74670273 0.035382006 0.20904998 0.3075812 -0.11430722 0.02944745 -0.4281014 0.20772871 -0.09685815 -0.4022776 -0.4270415 -0.21222027 -0.4155417 -0.20608455 0.278205 -0.23905045 0.5996484 0.48487017 0.019949747 0.27742383 0.3242371 0.11843771 -0.3179779 -0.38780704 -0.64419365 -0.12803186 0.08987475 0.078291915 -0.30569327 0.2966032 0.023812631 -0.8858352 -0.19461073 -0.8698554 0.8106567 -0.09918643 0.11417625
878 0.20340177 -0.02515546 -0.17161766 0.013405446 -0.8398404 -0.31919378 0.17982388 -0.007954318 -0.22943236 -0.4043741 0.03149229 0.1453608 0.11805254 0.118423864 0.6652193 0.46757594 -0.2622731 0.18156257 -0.7282755 0.6828966 0.12666649 0.611909 0.571009 -1.5030551 -0.55378175 0.00269743 -0.47076464 0.163035 -1.0422896 0.013566267 -0.04509807 -0.2710226 -0.73786664 -0.67741925 -0.42897663 -0.23071533 -0.49045068 -0.35540038 -0.5393117 0.17579532 0.021067077 0.3173128 -0.48157352 -0.54236263 1.3223246 -0.42391214 0.6500259 -0.47320274 -0.10771329 0.35892195 0.018658275 -0.12340594 -0.28585833 0.41209486 0.33704242 0.66067153 0.038168967 -0.0138919195 -0.574697 -0.14081475 -0.12679546 -0.117793955 0.2566699 0.021916965
1385 0.60098714 -0.10737572 -0.2031766 0.03772832 -0.14445789 -0.5227777 0.38015798 -0.57588446 0.061827634 0.34989184 -0.015236669 -0.01809036 0.31000578 0.024656614 0.055941142 0.58267695 -0.31007633 0.9291865 0.01562 0.7124098 0.40001607 0.3690307 -0.4323608 -0.13293605 -0.27728584 0.04207777 -0.2681633 -0.27122292 -0.3795948 -0.30275097 -0.13164778 -0.34744886 -0.16769172 -0.48025092 0.46525693 -0.6049414 -0.21244322 0.503482 -0.9123163 -0.049628694 -0.43402457 0.055413965 -1.0223587 0.23407735 -0.06496148 -0.1907933 0.34418955 0.029324723 0.102686614 0.2719778 0.462953 0.057993498 -0.41788045 0.19501027 0.16058046 0.09604746 0.014613684 -0.38859636 -1.0782148 1.3459332 0.09957922 0.30107778 -0.6284112 0.45707646
461 0.026530424 -0.5270228 -0.2696433 -0.23808445 -0.79480994 -0.027893366 0.22973035 -0.18493044 -0.25203076 -0.31427354 -0.36152044 -0.22576793 -0.27163205 -0.069640145 0.43889004 0.3418894 -0.6866257 0.4271189 -0.7262573 0.2901559 0.87422943 0.4209978 0.54121774 -1.0083629 -0.56424963 0.089250766 -0.21201855 -0.29041648 -1.0161349 0.22728339 -0.20500576 -0.0672179 -0.53731203 -0.7023126 -0.5576846 0.48966998 -0.84180415 -0.40047306 -0.025388662 0.2761947 -0.4277034 0.05555045 -0.76282185 -0.0448304 1.3168106 -0.66481864 0.42274374 -0.092076294 -0.61608785 0.34620765 0.5603068 0.43886238 -0.03669751 0.43696162 0.10919067 0.27199703 -0.29324475 0.041990183 -0.53151697 -0.038450338 0.0065209377 0.6114577 0.23692635 -0.1057194
1256 0.4950057 -0.49406677 0.27716228 0.32232326 0.1569605 0.36713433 -0.18399493 -0.3035607 -0.20597798 0.33249342 0.5587099 -0.096465774 -0.17711951 -0.46532834 0.13634887 0.25941125 -0.5091475 0.045523483 -0.72782487 0.6036433 0.18452157 -0.026025152 -0.430469 -1.006151 -0.6455443 0.77478755 -0.4150369 0.26560768 0.5282978 -0.3435961 0.2612157 -0.17258438 0.45441467 -0.12593418 -0.4105057 -0.073978975 -0.15819804 0.28129983 -0.76208746 -0.24642831 0.4805276 0.3269631 -0.9876923 0.3674048 0.53241456 0.065220565 -0.03460165 0.09894635 0.3453705 0.12040963 0.4634651 0.31920084 -0.70264757 0.83270466 -0.6178078 -0.20959279 -0.5822301 -0.050156716 -0.16947518 -0.16577852 0.3281977 -0.23912545 0.13161428 0.5482504
332 0.6549072 -0.2722515 0.25086004 0.10515365 -0.5084753 0.9144479 0.24475577 -0.020258572 0.05302739 -0.0017121744 -0.1413473 0.16991432 -0.14205672 -0.47756517 0.66938305 0.58112025 -0.32544774 0.2958091 -0.92587936 0.69712895 0.6896096 0.07474462 0.56504947 -1.1664467 -0.9821089 0.013011015 -0.018982142 -0.37640008 -0.8670255 0.2596405 -0.22504075 0.012748088 -0.97892016 -0.55714446 -0.05435826 -0.10557086 -0.7013759 -0.17470635 -0.42416695 0.16661552 -0.08791958 0.021547483 -0.0864526 -0.016784009 1.2467991 -0.3429885 0.3277941 0.10208681 -0.77290434 0.55109364 0.3255016 0.25093588 0.060748465 0.33145878 0.17852679 0.52926505 -0.35853213 0.0006499802 -0.59910226 -0.412075 -0.38471502 -0.077992916 -0.021825772 0.54356784
1434 0.46773082 0.19902101 -0.4074579 0.01755586 -0.0024693976 -0.54618543 -0.35845795 -0.46598545 0.36495417 0.034773234 0.41512394 0.13214046 0.40181166 -0.5298484 -0.15222926 0.6556326 -0.43872416 0.4449318 -0.22762188 0.043571196 0.7952586 0.293223 -0.149377 -0.38557374 -0.22048014 0.2578986 -0.719755 -0.41337597 -0.32231992 -0.3656531 -0.08478792 -0.6630308 -0.05324629 -0.27155155 0.19192262 -0.5075921 -0.10822513 0.52307045 -0.8261777 0.41889438 -0.8914121 0.16554637 -0.5533568 0.087767825 0.035559315 -0.66149974 0.1744002 -0.38881734 0.5121718 -0.3787327 0.7454629 0.27028853 -0.10326914 0.74789894 -0.11477448 0.45508814 0.89974016 -0.5614375 -0.4501411 0.7190522 -0.2956565 -0.20286547 0.0052438807 0.33715704
499 0.4291463 -0.24689476 0.064331874 -0.2565083 0.23428002 -0.3681488 -0.41976744 0.38068378 0.15225533 0.43227297 0.120552436 0.109044194 0.24834183 -0.48965728 -0.08283899 0.81087893 -0.47339383 0.7130904 0.11376224 0.5457233 0.9354527 0.16991562 -0.2965983 -0.5740442 -0.30779916 0.030583354 -0.67412734 -0.5523533 -0.6973827 -0.58555424 -0.06378236 -0.25431734 -0.30017903 -0.316964 0.6797135 -0.26175258 0.3063713 0.6548864 -0.80791956 -0.10559044 -0.31824437 -0.19129731 -0.17868014 -0.153245 0.047082182 -0.15749454 0.2039951 -0.038453564 0.27865133 -0.097653784 0.9218699 0.13030583 -0.07079764 0.84598637 0.08871119 -0.024974464 0.4525448 -0.60858226 -0.45165697 0.940745 -0.32370925 0.042155873 -0.09410389 0.70613825
842 -0.10455449 0.2723981 -0.80059224 0.25449753 0.26526198 -0.5744747 -0.19689965 -0.70266646 0.11858877 -0.07102899 0.07631866 0.40379655 0.13746344 -0.12803492 0.9170051 0.44830334 -0.29728964 -0.09934228 0.007435301 0.7548396 0.868482 0.78668267 -0.7958051 -0.0015687618 -0.6644384 0.8582037 -0.032766383 -0.0049502286 -0.17298497 -0.65335554 0.33697674 -0.4179162 -0.63818574 -0.34597868 0.52302444 0.25705764 -0.356447 -0.33369827 -0.040306382 -0.16206844 -0.17636392 0.17377502 -0.053050786 0.4571962 0.23593678 0.2212387 0.55530846 0.19913958 0.05932799 1.0005621 0.2745795 -0.23082264 -0.17162205 0.06947761 -0.37233046 -0.4188388 0.5311867 0.22676806 -0.83905154 -0.30584344 -0.16913846 -0.18747805 0.04286505 -0.6960768
1351 0.490151 -0.29527363 -0.2831491 0.19564062 0.42445323 0.5762922 0.108973056 -0.5319692 -0.36339596 0.3060273 0.12689486 -0.13571298 0.3448638 -0.761793 0.50141513 -0.032111526 -0.6788801 0.26570332 -0.4279407 0.69643974 0.4983637 0.0743884 -0.4249823 -0.8522957 -0.0010316939 0.4555573 -0.45463625 0.18358351 0.33470756 -0.6441302 -0.052293044 0.42497554 0.29390937 -0.59310454 -0.12617753 -0.03298338 -0.22770396 0.044061694 -0.20040327 -0.7325152 0.42395702 0.67973286 -0.96075445 0.5575973 1.0565517 -0.15003933 0.01101069 -0.40583524 0.2628152 0.68879306 -0.05818882 0.13682629 -0.56067914 0.6412312 -0.3240104 -0.5489843 -0.19826935 -0.42322275 0.4889084 -0.5484713 0.017706348 0.07413778 0.24100344 -0.459297
972 0.21874921 -0.04674987 0.07517454 0.28442064 0.63492745 0.090193234 0.274126 -0.58384264 -0.36456165 -0.008971486 0.03210854 0.26901805 -0.12660322 -0.7559809 0.34437954 0.49422708 -0.8176539 0.17455134 -0.7643901 0.7699443 0.6560221 -0.19970056 -0.08635509 -0.27691627 -0.58972096 0.56685084 -0.3245989 -0.0028612851 0.4619777 -0.37277755 -0.3336646 -0.069276184 0.4983849 -0.079578474 -0.1136597 0.70829076 -0.4340081 0.07422598 -0.22350386 -0.68357885 0.53393966 0.25604445 -0.9803781 0.7761898 0.8885218 0.10993275 -0.15506847 -0.2155306 0.42399302 0.13555491 -0.060837816 0.14309041 -0.45204067 0.054583818 -0.21123661 0.48803183 -0.74953747 -0.64550465 -0.2869127 0.10498942 0.27997652 -0.22112198 -0.054264568 0.2690757
1526 -0.2553444 -0.50843304 -0.28358734 -0.30617046 0.07705253 -0.24154562 -0.38696104 -0.5639879 0.038099565 -0.19482993 -0.16860306 -0.35381612 -0.479095 -0.37713256 0.764789 0.29282472 -0.15992635 -0.12011088 -0.44624546 0.74051446 1.1784157 0.7209302 -0.75327826 -0.24312373 -0.5352392 0.42395732 -0.5727273 0.36732832 0.17053261 -0.44303668 0.23055774 -0.6166014 -0.54380465 -0.8572009 0.5861525 -0.02820155 -0.37441766 -0.37268072 0.028160617 0.04673504 -0.20842569 0.16076142 0.3340659 0.1366747 0.5324845 0.7849561 0.13491464 0.3594805 0.33531868 0.2568252 0.6024748 0.24109396 0.38418937 0.111952156 0.07964511 -0.047938127 0.19311051 0.10276059 -0.85988045 0.14934455 0.203632 -0.78775305 -0.10198855 -0.7313964
325 0.16995451 0.03771388 0.19795495 -0.043547135 -0.15950291 -0.0069816774 0.2864708 -0.50062114 -0.041157514 -0.11322659 0.09068876 -0.50199604 -0.060359478 0.25743374 -0.16733097 0.16843614 -0.14165932 -0.65630054 -0.14575839 0.9358358 0.26026112 -0.25511605 -0.7423998 -1.3762484 0.6770872 0.5916931 -0.97284347 -0.34745193 0.004443428 0.35175693 0.22157992 0.2311914 -0.3334923 -0.23316517 0.064024426 -0.026639879 -0.60691386 -0.4885944 -0.031597465 -0.5008715 0.18708909 0.06134074 -0.29882154 0.78671235 0.54828775 -0.18958758 0.43676925 0.53664434 0.098400675 -0.104735464 0.00071328337 -0.7377392 0.116314575 0.021699974 0.16563433 -0.21084774 0.32767555 -0.50059974 -0.472913 -0.17661962 -0.5795097 0.27983916 0.19705723 -0.11798495
281 0.539622 -0.30499896 0.27873853 -0.23473452 -0.8826712 0.18669315 -0.08357396 -0.37460592 -0.36892143 0.42833114 -0.21691008 -0.6161787 -0.022573713 -0.79270864 0.18303616 0.621406 -0.17177242 0.30415812 -0.7935623 1.1208208 0.3563011 0.23184401 0.7665062 -1.0739204 -0.9767804 0.09010484 -0.4210024 -0.06100665 -0.87963104 0.36106524 -0.07328522 -0.2004404 -0.92047954 -0.31031066 0.13443018 0.026403388 -0.056528617 -0.14597772 -0.09970116 0.07051187 -0.17277952 -0.10457118 -0.0914782 -0.10140291 1.3048606 -0.24519621 0.47103247 -0.01222796 -0.32225963 0.5071851 0.5310473 0.024325272 -0.13464634 0.26718014 -0.03102246 0.9280931 -0.21269235 -0.30821887 -0.2686093 -0.20310794 0.06705051 0.14827034 0.16697006 -0.3050516
859 1.0103546 0.41794008 -0.52057683 -0.4411054 0.33811358 0.016723458 -0.42684862 -0.44360727 0.09781177 -0.2798594 0.37583485 0.044233914 -0.08390797 -0.4785078 -0.1269314 0.62878484 -0.7552051 0.08014302 0.17931744 0.6589558 0.4820566 0.3543186 -0.0024232063 -0.4162361 -0.010046271 0.25428712 -0.57063985 -0.09690751 -0.4154378 -0.12618037 -0.21657482 -0.3148125 -0.18531233 0.06862576 0.31072274 -0.27869606 -0.085918926 0.1727708 -0.82387775 0.48630497 -0.28929207 -0.1733954 -0.63236666 -0.22119948 0.031278145 -0.39051083 -0.19728196 0.34566396 0.4386221 0.32438934 1.180923 -0.15354383 -0.10352754 0.6785896 0.34668812 -0.09944727 0.22773744 -0.51916283 -0.843931 0.9602284 0.05350317 0.03513198 -0.08104811 0.78680176
798 -0.24140409 -0.33795303 0.1584288 0.117045365 -0.14821738 -0.31979138 -0.6162004 -0.2050087 0.51181614 -0.035424624 0.22824343 0.14853096 -0.52333057 -0.44902465 1.0524756 0.26402688 -0.17024763 0.27539763 -0.29313073 0.8750686 1.1528049 1.0632678 -0.8663318 -0.26050818 -0.4958083 0.41720465 0.057305988 -0.06546792 -0.032611866 -0.21945685 0.37360117 -0.6653209 -0.5484928 -0.57511795 1.1252279 -0.08894377 -0.30371737 -0.23794198 -0.22264914 0.16594054 -0.3730129 -0.2405779 -0.042490654 -0.13398176 0.7234091 0.12839873 0.1231082 0.527071 0.16460684 0.23931424 0.30557394 -0.13292617 0.20247743 -0.1363501 -0.4215851 -0.49298826 0.2560696 -0.15928139 -0.2937202 -0.5746674 0.3770016 -0.34165955 -0.18078987 -0.17382187
956 0.4118536 -0.33992472 0.018902523 0.5437169 0.24784821 0.07800924 -0.048534732 -0.57428247 0.12194741 0.22376975 0.5215623 -0.3572659 -0.25308055 -0.67293763 0.1636029 0.60566205 -1.0818031 0.054688845 0.028837742 0.59553576 0.54189974 0.097260974 -0.1331691 -0.42174703 -0.275912 0.7365222 -0.6559033 0.053404972 0.6081379 -0.36874413 0.14066716 -0.37320444 0.38973907 -0.23498644 -0.3469384 0.55386996 -0.3674449 -0.4959855 -0.11255543 -0.7266983 0.8700369 0.3085594 -0.4879962 0.25227326 0.6175122 -0.60396755 0.073461756 -0.390076 0.7290722 0.32219377 0.0027557875 0.23989952 -0.20195858 0.21128874 -0.42186615 -0.37771153 -0.2686111 -0.6903544 -0.047869865 0.33904213 -0.0010576934 -0.30474752 0.3136067 0.16488077
495 -0.03737696 -0.54874647 -0.19373421 0.44872296 0.08297724 -0.39387003 -1.0595526 -0.08188428 0.042134546 -0.15962897 -0.30423948 0.07418311 -0.21156023 -0.359401 0.599936 0.19346243 0.03848203 0.27923745 0.22618887 0.64105505 0.9936361 0.40896082 -0.8576697 -0.56781065 -0.082312025 0.63088846 0.13697377 -0.26075542 -0.036397595 -0.66684854 0.22921923 -0.16912916 -0.64742625 -0.74644315 0.74054927 0.022252347 -0.32684916 -0.10463124 -0.61193705 -0.28284198 -0.09611687 -0.16389115 -0.1499715 0.041416757 0.43718863 0.45673817 0.49782678 0.6536708 -0.17291628 0.7271294 0.46666253 -0.25461447 -0.06016461 0.62043107 -0.3161937 -0.2573167 0.3629113 -0.121448785 -0.5935602 -0.33171186 0.23257075 -0.648805 0.43400788 -0.6853174
1016 -0.7528341 -0.7712739 -0.617612 0.19846176 0.09868218 -0.19947585 -0.64268684 -0.42294142 -0.057016008 -0.27382734 0.0447322 -0.31541756 0.021688212 -0.5091487 0.49965855 0.10246731 -0.56342995 0.5608854 -0.25049788 0.5787715 1.363186 0.37662217 -0.64566225 -0.29816285 -0.7582681 0.589435 -0.08136277 0.06406758 -0.23337285 -0.5395139 0.43973622 -0.598424 -0.47415358 -0.47371098 0.4737612 0.026391739 -0.68485135 -0.30208924 -0.40478835 0.15795101 -0.04232043 -0.17458451 -0.019148983 0.31386122 0.47693792 0.16187043 0.22817601 0.43203837 -0.0567056 0.53377485 0.13387974 -0.09307346 0.1426409 0.2669435 -0.12028456 -0.5231931 0.6172403 0.1506777 -0.53192663 -0.40121207 -0.12559013 -0.5046026 -0.24178481 -0.74959576
450 -0.330016 -0.11576821 -0.557655 0.3245765 0.24469501 -0.25397065 -0.4364149 0.0649611 0.02955649 -0.38771698 0.018022783 -0.20333268 0.09049595 -0.9490175 1.1325369 0.48406532 -0.008294649 -0.009955047 -0.21735619 0.75493973 1.3811909 0.621947 -0.88528484 0.057844874 -0.4200216 0.30620354 -0.013571834 -0.35792994 -0.06323391 -0.20410177 0.31280878 -0.33607462 -0.1593887 -0.4776795 0.4258503 0.33631292 -0.47395694 -0.61139995 -0.20431861 -0.14611574 -0.35434023 -0.40409175 -0.22079664 0.118690915 0.8505304 0.6117218 0.3004101 0.06985347 0.40580207 -0.05024594 0.56507546 -0.4973517 0.50299245 0.2911801 -0.13579005 0.10663506 0.5126347 0.31457368 -0.5935313 0.16533378 0.107382685 -0.59498435 0.09059578 -0.27180457
1573 0.14066571 -0.9060742 -0.27712694 0.022214781 0.8503008 0.3836524 -0.6105756 -0.28565148 -0.037392233 0.34891662 -0.6682383 -0.28431374 -0.35228264 0.15595837 0.35888523 0.7805233 -0.41929504 0.65828156 0.37344423 0.8771443 0.036701616 0.75826645 -0.6398525 -0.8037892 -0.02424574 0.16987376 0.031655718 -0.42574012 -0.08504347 -0.20594932 0.0030327763 -0.016973823 0.06342268 -0.37235606 -0.36387727 0.16082056 -0.5664034 -0.56412286 0.22966741 0.15252462 0.080666624 -0.009153954 -1.1432965 -0.3505319 0.4032965 0.13944669 -0.08592272 0.07654821 -0.3766175 0.20217754 -0.12484475 -0.17258376 0.3810613 -0.028191334 0.13067864 0.4118004 -0.11120266 -0.18369666 -0.3962127 -0.38063034 -0.9531354 0.26522684 -0.030043278 0.5520178
870 0.59768504 -0.50795394 -0.39259776 0.72135776 0.57076484 -0.2186404 -0.07951923 -0.40175766 0.24511607 0.72537935 -0.2295043 -0.3148394 0.21954194 -0.0017293048 0.36321878 0.47762868 -0.49972782 0.50000525 -0.060207125 0.4764927 0.026052313 0.9566019 -0.58121115 -0.89763004 -0.18341415 0.08604836 -0.0048342184 -0.230986 -0.23266336 -0.22619323 -0.36324158 -0.5065153 -0.35575044 -0.34792858 0.42155346 0.4009038 -0.6688783 0.0687342 0.3060671 0.16572821 0.111701995 -0.18645671 -0.9943019 -0.7580387 0.72511345 0.49372014 -0.67250746 0.050862134 0.2262023 0.32529745 -0.16220742 0.18529816 0.1355924 -0.4380692 0.5753473 0.36934626 0.18024045 0.09260261 0.1923574 -0.13815536 -0.68629706 0.3952817 0.18067315 -0.08175148
563 0.35055095 -0.32009336 0.37735412 -0.0021760743 -0.3592932 -0.058514602 -0.41351205 -0.050088786 0.06893715 -0.36585686 0.20315425 -0.591553 0.32415557 0.040658444 0.062241644 0.47085112 -0.6369916 -0.6194608 -0.16745839 0.36096203 0.6308116 -0.35123563 -0.9007676 -1.0386871 0.61903167 0.12319881 -0.7699149 -0.4453419 0.10839208 0.47792634 -0.2007554 0.30878216 -0.16293205 -0.28903186 0.4584358 -0.05594992 -0.34802467 0.08475664 -0.37567642 -0.30888212 -0.13008484 0.09940133 -0.4390919 -0.23069821 0.8262229 -0.029019004 0.37299147 -0.06273341 0.24379364 -0.48591256 -0.21412985 -0.69486094 -0.25085026 -0.05788645 0.11309503 0.18661976 0.8333871 0.2774975 -0.7004678 -0.23415564 -0.69410545 0.34177253 0.048158668 -0.03366633
21 0.5491792 0.010454419 0.15890506 0.18241782 0.46663278 -0.12213049 -0.5868968 -0.57563835 0.1703878 1.0382901 -0.29976994 -0.27970755 -0.31413388 0.39266098 0.510794 0.84913087 -0.50823116 0.61775905 0.02817895 0.45865 0.41118285 0.85612977 -0.4445218 -1.104132 -0.24484207 -0.15660807 -0.44198465 0.07648943 0.11916372 0.21776448 -0.069098964 0.070233494 -0.39252728 -0.4361069 0.5479427 -0.15836345 -0.33815083 -0.65129715 0.58760554 0.39562017 0.342865 -0.3880154 -0.7204392 -0.67658097 0.3997543 0.20740324 -0.3638823 0.17149374 -0.022670707 0.008352386 -0.0029297627 0.015237514 0.46544737 0.38322046 0.060438387 0.6161988 -0.08960817 0.17910083 0.0067221676 0.03444745 -0.8097328 0.25467858 0.15045832 0.33416766
40 0.59644216 -0.2448766 -0.48910275 0.3331854 0.3797067 -0.08799739 -0.3266601 -0.10689031 0.6405509 0.9289418 -0.40027478 0.11550269 -0.431821 0.12915647 0.108133964 0.48085907 -0.02524829 0.069841176 0.13743652 0.69635916 -0.038471803 1.1958486 -0.6596643 -1.1360383 -0.16125749 0.4232638 -0.11072175 -0.3333095 -0.39566672 -0.09337585 -0.28208074 -0.058243103 -0.19808902 -0.33143452 0.33231804 0.38856444 -0.77535367 -0.45944375 0.34417287 0.05870307 -0.10400771 0.22935222 -0.6395734 -0.64422137 0.17626637 0.25468066 -0.26018998 -0.20910318 -0.15767139 0.0117115695 0.20797175 -0.38785633 0.7145416 0.12806708 0.28791624 0.9653501 0.13569322 0.004472825 -0.68319285 0.23468535 -0.7576387 0.49314484 0.33026263 0.15185343
1420 0.7417618 0.013435774 -0.17768547 0.4397273 0.38913748 0.30427358 -0.051332656 -0.5582296 -0.47810102 0.1562697 0.10672716 0.66440946 0.2989331 -1.0833129 0.1975553 0.44734198 -0.6764306 0.17578655 -0.72856253 0.7021337 0.2711416 0.12556157 -0.45037955 -0.7026224 -0.4978757 0.605736 -0.16872789 0.4854157 0.9524974 -0.07967488 0.23276661 -0.09178932 0.20052765 -0.40686116 -0.19368012 0.51774114 -0.18211882 0.15652752 -0.35651615 -0.09783874 0.56536514 0.12127655 -0.6851546 0.47495848 0.98354006 -0.0023754288 0.25056273 -0.648686 0.4576231 0.12258713 0.28326428 0.21300918 -0.43816876 0.3785696 0.110150136 -0.23150435 -0.21883953 -0.009433609 0.33380595 -0.03844783 0.14089847 0.30727577 -0.13293487 0.23505291
14 0.26397043 -0.091970876 -0.36598426 0.3939759 0.6964622 -0.54569876 -0.86850137 -0.49629623 0.13486886 1.0029749 -0.09249755 -0.44607586 -0.24497664 0.19243084 0.09093683 0.6427332 -0.68138695 0.31397384 0.33873615 0.5744399 -0.02016416 0.45482728 -0.39717436 -0.9695386 -0.28159097 0.29418862 0.0742602 -0.24875373 -0.1658435 -0.023591897 -0.1705834 -0.23540547 -0.26871237 -0.67291296 -0.0643264 0.33808395 -0.6275174 -0.342342 0.3877888 0.19749548 0.41439956 0.663868 -0.790801 -0.21496864 0.2520614 0.300213 -0.5012904 0.1941996 -0.37612706 0.3984271 -0.098261416 -0.09631371 0.14833602 0.55543447 -0.005911194 0.6171814 0.093655206 0.30682907 -0.32854256 -0.25489798 -0.75520384 0.6054524 0.4364741 0.11490984
250 0.7409336 0.035880275 0.22852439 0.1496106 -0.09363043 -0.25688663 0.061485264 -0.385283 0.44476035 -0.22313331 0.005565116 0.078859106 0.46034014 -0.045291398 0.15170367 -0.11972415 -0.48577467 -0.9446575 -0.349197 0.4162233 0.4228208 0.15402375 -0.87489307 -1.2576305 0.38333803 0.44943836 -0.8256872 -0.5409162 0.0022022438 0.60054684 0.17330952 -0.63629436 -0.44349468 -0.37305853 0.6690566 0.015113587 -0.2747237 0.23069276 -0.25994688 -0.1372607 -0.0028928614 -0.25855994 -0.22337276 0.122708865 0.9022038 -0.45433262 0.11693305 0.48728868 -0.21889827 -0.31553686 -0.4584229 -0.20791917 -0.14697789 -0.5018004 -0.3074964 -0.23724642 0.0931537 -0.32104427 -0.1725328 -0.29238763 -0.4955583 0.05512633 0.2029583 -0.35426766
1224 0.53657985 0.07301129 -0.20481017 -0.097534694 -0.052252896 -0.7271596 -0.063518696 -0.6922578 0.41107437 -0.5532819 0.33416256 -0.8128383 0.009483733 0.06612606 -0.11337811 0.74800354 -0.3275703 -0.40160057 -0.55329037 0.39606455 0.60759765 0.21939346 -0.36959758 -0.89544845 0.09423522 0.068549246 -0.75884664 -0.79915124 0.26832485 0.2339667 0.10286875 0.12757735 -0.53867465 -0.033102017 0.25572422 -0.17334406 -0.31686303 0.32837504 0.08997628 0.21782485 -0.55211806 -0.44729313 -0.016055005 0.3123597 1.0356659 0.073886864 0.05966425 0.36669394 0.13462146 -0.52243036 -0.04646452 -0.6503861 0.17093982 -0.17220141 0.2639336 -0.02306015 0.3985943 -0.16416064 -0.8020892 -0.31342062 -1.05223 0.44678697 -0.25341353 -0.25791895
1079 0.34480113 -0.5420993 -0.32048228 0.39379042 0.38339022 -0.37788665 -0.16077687 -0.17837848 0.057144336 0.5597628 -0.4673448 -0.11457175 0.20368549 0.35993052 0.44805148 0.9770988 0.08741785 0.8831176 0.38522294 0.8627719 0.13950807 0.40314138 -1.2254425 -1.1804224 -0.023659803 0.2585489 0.11013056 0.051484827 -0.069504455 -0.048032824 -0.46305966 0.150997 -0.29788628 -0.44767085 -0.014623655 -0.08857194 -0.48323232 -0.3035651 0.2404357 0.103786014 -0.20557028 0.23070659 -0.4396394 -0.84153426 0.28860587 0.2680468 -0.12861866 -0.06986456 -0.2388628 0.50286824 0.47169828 -0.3086209 0.42854485 -0.04313699 0.447394 0.024330437 0.45714802 -0.2459883 -0.079183176 -0.42730242 -0.89534724 0.4227427 0.21868466 0.4907936
920 0.584196 0.43493572 -0.22105154 -0.059580714 -0.05377413 -0.34029466 0.03892706 0.24490684 -0.06916836 -0.2980877 0.32834893 -0.20141555 -0.12062855 -0.23092861 0.29988822 0.32987785 -0.32871276 -0.30025566 -0.26668936 0.08540084 0.55338585 0.20991899 -0.95068556 -1.2922616 0.3636161 0.46044114 -0.86645854 -0.9514378 0.062498055 0.35820013 0.09289009 0.11706788 -0.075363055 -0.029293733 0.39945543 0.21999858 -0.46880844 -0.25193566 0.018309534 -0.33074433 0.20044853 -0.6275906 -0.37814024 -0.05105959 0.44289464 -0.4952632 0.42926645 0.04098437 -0.36211428 -0.3044533 0.0033661055 -0.68886787 -0.33349702 -0.2740302 -0.3408038 0.039741345 -0.15595967 -0.21384977 -0.6585767 0.004511578 -0.532181 0.5587202 -0.25983915 0.0044946685
1415 0.9124726 -0.033717606 -0.101830624 0.10088007 0.13061321 -0.23024938 -0.24232529 0.023714863 0.4910417 -0.2126522 0.031876445 -0.15587834 0.554735 -0.024508629 -0.0732972 0.03356909 -0.5152708 -0.745499 -0.35838574 0.22501957 0.6113431 0.22705099 -0.88672084 -1.1390328 0.24358909 0.08727203 -0.94864506 -0.75620395 0.12315637 0.34039477 0.42473796 0.2582482 -0.18732002 0.1285065 -0.10357412 0.46623987 -0.55017555 0.054263674 -0.04002917 0.16344157 -0.006732802 -0.007884728 0.049039483 0.37604392 1.0737088 -0.16786776 0.277465 0.6212088 -0.053951453 -0.23158248 -0.123672 -0.053377125 -0.41425553 0.054022964 0.47865766 -0.3667781 0.46798885 -0.55002916 -0.48501652 -0.2567532 -0.34601143 0.36694512 -0.19543415 0.24394324
861 0.28066146 0.18577816 0.06629352 -0.060264684 0.035806205 -0.04231193 -0.37488583 -0.26335227 0.20116174 -0.21518059 0.1663607 -0.7573152 0.27492926 0.086981595 -0.165837 0.1529226 -0.5755054 -0.09084442 -0.051457345 0.34407637 0.70462185 -0.7528659 -0.88219714 -1.3316568 0.35000762 0.021753384 -0.91071475 -0.6992648 -0.24698763 0.09829349 0.18298358 0.14711158 -0.37208837 -0.13429213 0.72776693 0.2662411 -0.42037448 0.20833065 0.079333305 -0.28094763 0.07665896 -0.5387685 -0.45233494 0.4241908 0.827773 -0.3669459 0.21317305 -0.18099314 -0.34336242 -0.18281054 0.18291822 -0.4408347 -0.44944727 -0.54648167 0.05867148 -0.0070718066 -0.288298 -0.15076712 -0.6019253 -0.24365383 -0.4658101 0.04755327 -0.15719889 -0.30431908
1282 0.10734307 -0.14905107 -0.15774392 0.38544798 0.33829123 0.3443822 -0.44030496 -0.8823268 -0.22550559 0.470386 0.54183674 -0.039377432 0.53351927 -1.0902339 0.17462896 0.2797754 -0.6562294 0.29147822 -0.41456977 0.32851055 0.23757833 0.20756139 -0.0822909 -0.86191183 -0.48750088 0.90562254 -0.3290179 0.38609752 0.44861367 -0.4956611 -0.17147502 0.06822128 0.40458634 -0.03681957 -0.19911876 0.26564518 -0.36367384 -0.09700255 -0.14906758 -0.83256567 0.17457403 0.3877128 -0.36683786 -0.07242503 1.0000482 -0.4878258 0.2386204 -0.19708505 0.44535327 -0.002088915 0.7536496 0.012426777 -0.31376338 0.31067038 -0.55260223 -0.38121936 -0.10193399 -0.37559247 0.40375316 -0.1403849 0.16661935 -0.0049420996 0.19545661 0.31124145
1245 0.20070796 -0.11775097 0.3334435 0.028315336 0.13268971 0.35252038 0.25245255 -0.81619793 -0.39448026 0.0021733525 0.20365901 0.22464317 -0.19795881 -0.3681713 0.61138785 0.99494433 -0.22623561 0.2003637 -0.7065604 0.6603963 0.3102915 0.3754353 -0.7472781 -0.4042493 0.03270426 0.62877196 -0.39841223 -0.01246564 0.6232101 0.03366333 -0.21642007 0.013938232 0.19676167 -0.4345256 0.01722078 0.31957462 -0.06618256 0.2960921 -0.39494294 -0.3438423 0.42143887 0.35579887 -0.7675345 0.18853717 1.141785 0.04664458 0.27340534 -0.40071532 0.42012846 0.37364227 0.388455 0.6435905 -0.4793501 0.09288622 -0.71723616 -0.2948932 -0.6380976 -0.7784622 0.476252 0.196039 -0.023669913 -0.13824786 -0.33076745 0.21267195
1426 0.2690738 -0.2605423 0.4133719 -0.35108766 -0.028297644 -0.12341741 -0.11053243 -0.45169485 0.5117137 -0.25914726 0.30063233 -0.07007906 0.0739643 0.07157296 0.27957812 0.13276903 -0.65780187 -0.16589525 -0.28506312 0.28628296 0.12706234 -0.0761435 -0.39285102 -1.193724 -0.11961851 0.4570046 -0.83051825 -1.3198706 0.14213009 -0.24480008 0.438784 0.22602598 -0.17978378 -0.3758594 0.78685343 0.2699372 -0.49990895 -0.3071058 0.37332666 -0.12981804 -0.39624986 0.04777976 -0.19836995 0.30017725 0.6661706 -0.37020186 0.23193504 0.33189607 0.1820659 -0.5640405 -0.38435197 -0.47504482 -0.3523043 -0.42002892 -0.015935475 0.22902748 0.27613673 -0.6408855 -0.5148784 -0.17521645 -0.41089013 0.74840283 0.2577124 -0.2137437
822 0.55380493 -0.6516529 -0.006464471 0.15697509 1.00979 -0.065267 -0.21236597 -0.31858435 0.49487463 0.4682023 -0.098079816 -0.29577237 -0.027201656 -0.0110909175 0.14549865 0.30023566 -0.16269816 0.36674222 0.3884922 0.6250773 0.47203347 0.8411276 -0.527005 -0.87888426 -0.40094602 0.0038809339 -0.078787535 0.25340638 0.122548565 -0.050815806 -0.18546212 -0.15431914 -0.31388533 -0.75326055 0.18028249 0.5489128 -0.9235261 0.15685475 0.5255379 0.099274494 0.06286138 0.005802454 -0.76708406 -0.1667067 0.11926006 -0.02176326 -0.26532346 -0.18196921 -0.4874249 -0.20539403 0.39806673 -0.49163225 0.40955144 0.5621227 0.40652883 0.16015565 -0.325917 0.13781105 0.032237537 -0.49345472 -1.1245798 0.39922455 0.048519857 0.5799868
141 0.64089465 -0.13732223 0.12115429 0.60580397 0.7928961 -0.6465565 -0.15792814 -0.67631215 0.36645004 0.63388544 -0.3974729 0.23860765 0.16950889 0.26490068 0.058127586 0.8415222 -0.3570521 0.22313912 0.3061419 0.69899714 0.610362 0.564405 -0.6574842 -0.8920796 0.017560719 0.18451905 -0.28381455 -0.36299974 0.083734915 -0.46313512 -0.1376619 0.04417728 -0.060809277 -0.6690773 0.05308913 0.31456378 -0.33565488 0.1298099 0.026610898 0.056737147 0.10881484 0.16450967 -0.8089683 -0.67884445 0.25774568 0.62401193 -0.2841945 0.33778676 -0.3883653 0.22597663 0.040662464 -0.1717213 0.21003464 0.011217679 0.5032639 0.64510983 -0.18581544 0.16688587 0.27352464 -0.60714567 -0.6548395 0.15173247 0.27810937 0.4394581
717 0.53331125 0.14644799 0.37913865 -0.037723057 0.008541629 -0.69438314 0.085263535 0.075831465 0.27941024 0.12914683 0.18962035 0.10541819 -0.055707753 0.2790462 0.011179668 -0.1268548 -0.97752905 -0.55616254 -0.0152860135 0.22666489 0.6878445 -0.37255242 -0.97107637 -1.1819439 -0.023746427 0.09074099 -0.45477992 -0.4642284 0.216361 0.41789588 0.05166667 0.061025593 -0.722118 -0.3148969 0.09547645 0.35249385 -0.5535951 -0.09498822 0.051163547 -0.3220302 -0.32773936 -0.1797628 -0.2692112 0.5501341 0.80963296 -0.15937491 0.24439225 0.45067003 0.47008735 -0.1477507 -0.29951993 -1.0525897 -0.191564 0.22079916 0.23998559 -0.09758869 0.087506846 -0.3174548 -0.53023404 0.3239127 -0.5745918 0.17396022 -0.0039817845 -0.13110375
735 0.18993545 -0.5861565 -0.30255333 0.15125823 0.1927388 0.459043 0.5342339 -0.39899087 -0.071501866 0.12580991 0.4632966 0.09990658 -0.32715642 -0.5345851 0.46981093 0.2820003 -0.34795445 0.4110093 0.070926726 0.35555062 0.6125282 -0.29157266 -0.51048195 -0.7997561 -0.75001043 0.872504 0.10217516 0.20439482 0.6656675 0.20055678 -0.08788924 -0.17295898 0.46443632 -0.49750385 -0.24591002 -0.13976473 -0.4023869 -0.3752771 -0.7042351 -0.6415623 0.5484807 0.45940194 -0.71825343 0.4724784 1.1031419 -0.46800518 -0.1722727 0.20022933 0.6261491 -0.05720476 0.21987538 0.53344554 -0.7276592 0.5901667 -0.090214275 0.065684445 -0.28393152 -0.44862005 0.03690873 0.01602887 -0.079343066 0.036156703 -0.24301581 -0.10167836
1546 0.28472987 -0.055045564 -0.05549869 0.025110003 0.021483798 -0.4549112 0.17185798 0.027503537 0.33262122 0.18401249 0.29123083 0.7736605 0.26245335 -0.52978307 -0.05564496 0.20727107 -0.18949006 0.5109647 0.32675454 0.7719334 0.5603755 0.269074 -0.38049266 -1.0035402 -0.23908257 0.47100973 -0.13484295 -0.46833354 -0.5808224 -0.0706838 0.011384246 -0.32563773 -0.079855844 -0.56792927 0.21972924 -0.10289401 -0.22789732 0.81752104 -0.8234571 0.7080486 -0.33769637 0.10765722 -0.18625942 0.11621644 0.07974389 -0.23877236 0.01475097 -0.11568956 0.5955172 0.06812727 0.6446524 0.3903555 0.6440712 0.17280516 0.17662482 0.28762606 0.53354555 -0.62703496 -1.2182983 1.0449514 0.003207952 -0.109626144 -0.12984088 0.5835805
1511 0.5105816 0.0883851 0.012316398 -0.4599128 -1.1259583 0.18692459 -0.3178918 -0.052367758 -0.63344675 -0.2966538 -0.09861121 -0.13963528 0.033486012 -0.32781023 1.1189004 0.70992994 -0.24286233 0.30147898 -0.6651875 0.6478333 0.7138953 0.05037831 0.44634432 -1.2344173 -0.6603339 0.23532706 -0.09698389 0.29905158 -0.5797648 0.17894672 0.18236946 -0.2557312 -0.9379934 -0.49067044 -0.19090421 0.26989985 -0.4486526 0.23929778 0.3326972 -0.10216691 -0.19004847 -0.25481853 -0.40097943 0.27101907 1.0732489 -0.059972372 0.2343169 -0.2619497 -0.45290598 0.4927689 0.09558208 0.06000171 0.12798597 0.9443127 0.34904245 0.449808 0.13531989 -0.12242453 -0.26977107 0.24571073 -0.64608335 0.26839167 0.43179148 0.34469116
163 0.22716321 0.27365264 -0.3648361 0.2198566 0.15421818 0.03348644 0.10695171 -0.5247217 0.06877469 0.08977146 0.051893167 0.16762595 0.6040685 -0.44342875 0.5094987 0.5113476 -0.34074047 0.44564673 -0.28871477 0.3451515 0.6990305 -0.14484563 -0.4170047 -0.63758445 0.25489944 0.41494086 -0.37508556 -0.6682181 -0.35501763 -0.51996434 0.10631481 -0.90697175 -0.650616 -0.21757688 0.6802704 -0.26241204 0.014608457 0.3812169 -0.8131625 0.6827221 -0.37873304 -0.21449478 -0.51176476 0.27197593 0.073887914 -0.5956521 -0.19938813 0.05688145 0.20317867 0.07252323 0.7827421 0.3715798 0.34816206 0.6111732 -0.1751795 -0.2850917 0.38019177 -0.7160296 -0.33803195 1.0755147 -0.3082978 0.13356736 0.00031194557 0.7162087
1061 0.52349114 -0.6054155 -0.15094617 -0.13567998 0.2560875 0.13994893 -0.21729931 -0.7331176 -0.1103811 -0.21147366 0.18509114 -0.22535828 0.33732808 -0.84325165 -0.053988397 0.43591592 -0.46258962 0.30665532 0.052052174 0.7932432 0.56504226 0.1791248 -0.04643284 -0.44960186 0.20944208 -0.033502277 -0.3611278 0.2966128 -0.53932583 -0.34532216 0.45963997 -0.6998122 -0.12066287 -0.33272326 0.14474532 -0.19468251 -0.045146246 0.6905293 -0.85298324 0.3756704 -0.6799737 0.28782785 -0.6039618 0.16135083 0.06752893 -0.4847636 0.24358846 0.18940036 0.24033934 -0.21169113 0.8197813 0.2302593 0.38890442 0.31977722 -0.08877779 -0.27027324 0.30016622 -0.58172154 -0.95910245 1.1952252 -0.42267483 0.36362457 -0.09689678 0.40417126
507 0.54668605 0.18045327 -0.5474184 -0.4787741 0.30340925 -0.010425867 -0.22415411 -0.33827502 0.015599979 0.4030787 0.15505476 0.34607542 0.31781024 -0.38838 -0.3657975 0.55678856 -0.40566465 0.5177487 -0.022484751 0.5571964 0.6127694 0.18794645 -0.67242175 -0.5091497 -0.63218623 0.16702129 -0.31309026 -0.50474554 -0.13706313 0.0010470287 -0.031987883 -0.37814036 -0.20118634 0.37610993 0.14281577 -0.3284014 -0.07028252 -0.2125876 -0.9893296 -0.000919378 -0.21127586 -0.12943701 -0.8453644 -0.32052457 0.028265378 0.046777833 -0.15861791 0.18711597 0.665547 -0.2243906 0.7664567 0.12584354 0.23658104 0.5657659 0.44530267 0.12391548 0.3128975 -0.9250093 -0.8462496 1.0640206 0.08944051 0.5053158 -0.5630587 0.34946933
928 0.38722053 -0.30612856 -0.28560358 -0.15609914 0.16571158 -0.24241784 -0.29056907 -0.5248135 0.18357757 -0.23551758 -0.005559907 0.27209494 0.71892625 -0.39164785 -0.3359326 0.81402826 -0.43107414 0.46223864 -0.17378023 0.5473604 0.2706303 0.06658445 -0.16332448 -0.7387838 -0.18956324 0.22992885 -0.22155245 -0.12287061 -0.9653727 -0.5777529 0.024284936 3.9584615e-05 -0.5200555 -0.051602717 0.028998893 -0.36682007 0.1987637 0.26579714 -0.9029198 0.48636734 0.099830344 -0.40802664 -0.96363276 0.044518482 0.22865489 -0.25925434 -0.04533463 -0.40064424 0.30021042 0.055121824 0.7302977 0.40017548 0.45885256 -0.1463846 -0.3870388 -0.36814174 0.5966058 -0.4163621 -1.0966069 0.57212424 -0.068088815 0.42958724 -0.04408545 0.6009409
1361 0.4333796 -0.0062948638 0.29029748 -0.28222117 0.10642345 -0.015339509 0.2413884 -0.6440651 -0.47859997 -0.05683552 0.52526253 -0.81439346 0.06346494 0.14429493 0.01726299 0.15760796 -0.13683704 -0.6766766 -0.36892465 0.4657425 0.2564419 0.08529101 -0.7841417 -1.2443573 0.003619853 0.89275956 -0.49123862 -0.40052545 0.221673 0.07838986 0.15688473 0.2145841 -0.16900268 0.06340789 0.35473377 0.11744285 -0.5574774 -0.24944083 -0.15466273 0.12501067 -0.57685757 -0.37547916 -0.3430642 0.3007156 0.5404918 -0.49173373 0.68799436 0.72249186 0.402351 -0.18379189 -0.039307587 -0.7608003 -0.2565172 -0.2616106 -0.10197688 -0.30236268 0.21295823 -0.30766022 -0.3156438 -0.16325271 -0.6878791 0.35498425 -0.41021204 -0.21631895
198 -0.38351122 -0.0072717573 -0.1687676 0.24145631 0.3151174 -0.350218 -0.1049482 -0.26176038 0.5449122 -0.37899622 0.35578933 -0.4519976 0.036795367 -0.24867018 0.9429774 0.55030626 0.34392872 0.08435038 0.23066957 0.8898233 1.0438486 0.50321895 -0.7352773 -0.20207119 -0.33985087 0.3234638 -0.052362606 0.15779427 0.106730804 -0.32458708 0.4275254 -0.48388904 -0.60437 0.0021637117 0.41137013 0.1737886 -0.12805317 -0.6144899 -0.84932375 -0.13515815 0.2828881 0.15693189 -0.44388232 0.030208357 1.0158757 0.4599199 0.24372338 -0.05110967 0.38180646 0.6051839 0.2868175 -0.21077529 0.36636105 0.27734908 -0.117046714 -0.4892676 0.5045528 0.1596842 -1.0372498 -0.47279927 -0.10493979 -0.10441515 0.10323459 -0.65993875
245 0.20935644 0.34703207 0.06384904 -0.18587717 -0.697195 -0.028169485 -0.019991118 -0.13272059 -0.17160083 -0.32953787 0.027115565 -0.30534476 -0.25382075 -0.8412879 0.42249012 0.44130915 -0.79434425 0.23247467 -0.79129577 0.27418756 0.6668997 0.9359902 0.5682219 -1.0766864 -0.6784834 0.47097504 -0.18588465 -0.2899947 -1.2551757 0.28757256 -0.12297459 -0.22225522 -0.34026077 -0.4473164 -0.050902355 0.56434363 -0.31213623 -0.08302878 -0.19186996 0.104860544 -0.5957923 0.27707303 -0.30154204 0.037532397 1.0560468 -0.28445676 0.34866595 -0.10932718 -0.6149268 0.21111874 0.11370113 0.1298164 -0.014538486 0.7238525 0.43471038 0.49451193 -0.7133207 0.06040526 -0.5515988 -0.04129052 -0.44281152 -0.02215278 0.42554218 0.3236247
1278 -0.34428373 -0.048001528 -0.22007483 0.21927065 0.3390448 -0.068534575 -0.3244489 -0.789006 0.16013253 -0.49233687 0.2977818 -0.115225956 -0.106852815 -0.41926187 1.0230719 0.40801638 -0.17746939 0.16103438 -0.109031 0.7997786 1.5579947 0.50325173 -0.7040968 -0.41805765 -0.39977232 0.53012186 0.32704762 0.22772111 -0.2493954 -0.18442577 0.5776293 -0.27324262 0.30131423 -0.3895568 0.92841446 0.3292513 -0.116748296 -0.28248298 -0.038711883 -0.8045559 -0.56236005 -0.14534858 -0.037614755 0.1782783 0.3004595 0.6650688 0.074747875 -0.11021566 0.22925785 0.23249015 0.74450535 -0.37349114 0.0058545712 -0.0977192 0.1979137 -0.2020824 0.5141119 -0.39006606 -0.8006626 -0.31820375 0.09633068 -0.36794978 0.22303998 -0.3004003
156 0.34738612 0.23083675 0.029355938 -0.31295773 -0.9561931 0.025706284 0.14372018 0.019006483 0.33042425 -0.12685975 0.02337841 -0.38318306 -0.32842928 -0.37041408 0.668366 0.5482738 -0.668611 0.14756794 -0.43028507 0.4839887 0.2886697 0.2934783 0.6566102 -1.2975307 -0.801051 0.6489142 -0.0077766534 -0.44147626 -0.74680495 -0.26567596 0.0038100986 -0.07611985 -0.86786777 -0.5818669 -0.56727004 0.14684409 -0.90299326 0.40549487 -0.1692413 0.11985194 -0.44324827 -0.16190287 -0.5945672 -0.14260869 0.9943615 -0.26052186 0.7222654 -0.19263622 -0.22269008 0.728209 0.5771281 -0.027254026 -0.20893721 0.12761578 0.1144548 0.84831303 0.34738627 0.10875096 0.018828783 -0.38326412 0.06769449 0.08986999 0.52919126 0.42758358
1051 0.2387555 -0.34466633 0.10604659 0.34420758 0.61326045 -0.22778992 -0.6692547 -0.68798983 0.049376726 0.6881573 -0.44226703 -0.46401936 -0.049983002 0.06495584 0.3471071 0.13843082 -0.33262962 0.49283916 0.094858885 0.6908414 0.8231152 0.7532136 0.073376924 -1.3645241 -0.15382265 -0.019033382 -0.11191595 0.49951643 -0.22515449 -0.16011365 -0.28091604 0.12724404 0.045341797 -0.16635856 0.2664803 0.05749011 -0.64442027 -0.35369736 0.61686283 -0.21248595 0.30901283 0.06690997 -1.1408439 -0.32635605 0.121378645 0.2369417 -0.41946703 0.48268902 -0.034381904 -0.019539237 0.16469182 -0.031576376 0.50536543 -0.030269276 0.40275648 0.18731101 0.4570945 -0.015848953 0.115018696 -0.16781808 -0.8372712 0.40727907 0.04640233 0.5035829
300 0.40803576 0.26758593 -0.093064085 -0.041037608 -0.99537176 -0.5845012 -0.37554014 -0.55405325 -0.22521335 -0.029353922 0.19800946 -0.3471268 -0.26810044 -0.32560095 0.66562474 0.60913795 -0.55091614 0.3906568 -0.7205986 0.21214215 0.52225053 0.13498667 0.5639511 -1.2910479 -0.780131 0.28986746 0.21485958 0.14457512 -0.53356004 0.20788868 0.34963548 -0.112832345 -0.84429294 -0.6365712 0.081239425 -0.025328536 -0.50046265 -0.09286807 -0.13770784 -0.26444656 -0.24578461 0.29194263 -0.7677181 0.18892683 1.0184757 -0.5705165 0.7293881 0.113755465 -0.8073093 0.74426395 0.17931227 -0.27756843 0.23765412 0.5853102 0.6515516 0.49125543 -0.15726823 -0.13270783 0.21738233 0.110936895 -0.15479669 0.13254176 0.046472557 0.4814483
115 -0.8129975 -0.014254289 -0.3690483 -0.07109113 0.1419178 -0.11588639 -0.49725214 -0.49204087 -0.17818156 0.21976231 -0.24422465 -0.0053023337 -0.06279508 -0.51270026 1.0894663 0.35625666 -0.21649179 -0.027113816 -0.46334848 0.9511037 1.1425482 0.2770481 -0.96051735 -0.19639233 -0.41056573 0.5082707 0.11905607 0.19368164 -0.061866563 -0.7909098 0.18625169 -0.07503025 -0.33544618 -0.6550651 0.9812663 -0.19570892 -0.31925127 -0.26652685 -0.39664006 0.034450617 -0.78064257 0.043216623 0.042978883 0.07632603 0.6354662 0.52234757 0.13602042 0.18433176 0.19091797 0.054898996 0.5134935 -0.40300724 0.28401923 0.14737092 -0.27735105 -0.28951684 0.04151188 -0.091219954 -0.6375078 -0.038811408 -0.021102669 -0.009025963 0.6376107 -0.4983744
569 -0.0023855178 -0.49727765 -0.5748901 -0.08458107 0.16265166 -0.46988416 -0.6302968 0.2139702 0.15025416 -0.41017526 -0.12677264 -0.1457789 -0.009123041 -0.17944252 1.0558184 0.44163516 -0.13602585 -0.12497 -0.07126437 1.104213 1.2006153 0.35074916 -0.40221488 -0.75255156 -0.21852899 0.63205475 0.13039039 0.19884315 -0.47919118 -0.36882043 0.65833807 -0.24482425 -0.17560905 -0.19959204 0.6893979 -0.043001957 -0.01266939 -0.6099914 -0.14939612 0.19919594 -0.20587933 0.420404 -0.4765593 0.35672858 0.19097497 0.27039158 0.57115173 0.17135249 0.81702423 0.21327625 0.71813905 -0.11333223 0.33376598 0.14524788 -0.44010305 0.07585871 0.0016747538 0.3812877 -0.74887407 -0.3072721 -0.08169338 -0.23610966 -0.045505002 -0.9002004
587 0.36432704 0.12564544 0.008417589 0.32339063 0.478773 -0.114736065 -0.30849224 -0.5341225 -0.08856188 0.41089135 -0.53694135 -0.39725932 0.10277265 -0.042517148 0.5359248 0.18806145 -0.37660623 0.5500821 0.2348615 0.74053746 0.14069712 0.18898691 -1.0537682 -0.9313529 -0.15939209 0.6477129 0.04340631 0.013313818 0.16681604 -0.045726 -0.49779633 -0.26871786 -0.25730622 -0.6701477 -0.069423206 0.43545598 -0.33733138 -0.24767359 0.7741147 0.47716928 0.27583447 0.47206992 -0.7324976 -0.50486666 0.19883367 0.045763254 -0.61278754 0.2076148 0.29512876 0.12501982 0.36614048 -0.26663518 0.83940506 -0.22688787 0.27142245 0.384116 0.30340558 -0.17347541 -0.33935842 -0.5411358 -0.66569644 0.22983137 0.57261825 0.55206585
228 0.09921714 -0.24191202 -0.40033573 -0.15499896 -1.1150389 0.23146844 -0.042552784 -0.23102768 -0.09566933 -0.12751819 -0.31644773 -0.00058122055 -0.29679275 -0.16641903 -0.15075971 0.8656926 -0.23941734 0.75330085 -0.809868 0.6868901 0.410636 0.21744642 0.3349697 -0.9638489 -0.38089624 0.3773027 0.08421028 -0.047762256 -0.53559583 0.3089978 -0.30155882 -0.44626352 -0.8318336 -0.588066 0.25738823 0.016387396 -0.8785845 0.10338461 -0.09892603 -0.06716461 -0.3457442 0.086898476 -0.18304947 0.005705328 1.4844134 -0.15965399 0.90905964 -0.5869536 -0.3485923 0.19915594 0.19085187 -0.040846225 0.28826454 0.8422309 -0.14420018 0.24898297 -0.38221806 -0.17456745 -0.34309915 -0.28957748 -0.6271278 0.34839973 0.5173203 0.2744275
1119 0.3973589 0.29300806 0.005102461 -0.23237003 -0.35527647 0.2979736 0.02022471 -0.19648385 0.122811735 0.14242254 0.490473 -0.50432855 0.5125733 0.32407612 -0.06010406 0.10462623 -0.4460816 -0.39472422 -0.33233237 0.7185405 0.47429237 0.4409406 -0.6630783 -1.0169619 0.40517798 0.39443746 -0.6546863 -0.6846188 0.37811852 0.21440123 -0.34914896 0.39782622 -0.2064861 -0.10355776 0.44785562 0.011437408 -0.67673117 -0.07896459 -0.29398084 0.24444424 -0.29218337 -0.4914291 -0.35687354 0.9255054 0.7873745 0.219079 0.39084664 0.067915216 -0.047918934 -0.1314348 -0.2857919 -0.5571965 -0.30987632 -0.24916813 0.014541585 0.24763194 0.20641066 -0.25921273 -0.47255853 0.10905323 -0.6724885 0.5023976 -0.29383352 -0.6394306
775 0.026710646 -0.14775373 -0.68610775 0.33609465 0.2131624 -0.109130256 -0.32908496 -0.19998594 -0.11609978 -0.33301 -0.28477985 0.0094854655 -0.1802053 -0.19751284 0.93082035 0.6071628 0.10826194 0.2960524 -0.2818577 1.0952009 1.3540213 0.7860574 -0.5560032 0.21333116 -0.42673168 0.68496823 -0.07227711 0.06741696 0.053029515 -0.06846676 0.3460729 -0.18821809 -0.45952037 -0.59299016 0.63326025 -0.19656326 -0.5494372 0.111945875 -0.32565692 -0.19151807 0.37792134 -0.047091443 -0.19056357 0.25761038 0.1125946 0.08910559 -0.06665512 0.052919712 0.21971203 0.14014179 0.3253212 -0.26144534 -0.0050858 0.111127675 -0.45872676 -0.099745445 0.0059638536 0.03230129 -1.4520652 -0.49410132 -0.2788448 -0.15552236 0.09155629 -0.9743014
373 0.64571023 -0.19496483 0.25995085 0.19810684 1.1637993 -0.41114578 0.13938011 0.12863384 0.290954 0.9838966 -0.2554842 -0.31690818 -0.038722713 0.2779346 0.44216868 0.039328422 -0.42165995 0.91804045 0.084662765 0.4805942 0.22540869 1.0734352 -0.909696 -0.98737395 -0.6530914 0.09043386 -0.2863735 0.26302224 0.07149578 -0.039062835 -0.06627408 -0.088401265 -0.17528051 -0.51694363 -0.046832494 0.3069048 -0.5701284 -0.5981206 0.088154614 -0.3063254 0.18940349 -0.12499339 -0.35860527 -0.32147196 0.37863892 0.07485499 -0.4307642 0.07212836 -0.60700023 0.118452534 0.31491145 0.016615883 0.6923992 0.25749823 0.3042997 0.398675 0.24947958 -0.23826927 -0.16603807 -0.08423451 -0.761999 -0.17746183 0.05547232 0.39248818
1097 0.65726155 0.17102008 0.14984746 -0.48782283 0.2771849 -0.09194645 0.015716836 -0.02282879 0.1278573 -0.13181747 0.05435349 -0.42149046 0.0138474535 0.11275942 0.4237723 0.468217 -0.61248744 -0.2630403 -0.19676518 -0.11082695 0.15008897 -0.044973575 -0.6559997 -1.5270286 0.021405863 0.3156087 -1.1235199 -0.71142226 -0.006679171 0.51329666 0.34398073 -0.03672933 -0.080929436 -0.16512956 0.116259895 0.4635488 -0.5818093 0.10127745 -0.73030335 -0.10787883 -0.2075913 -0.11862313 -0.20228705 0.82793814 0.51010776 -0.24574485 -0.19361378 0.5959592 -0.15379669 -0.20987198 -0.2541247 -0.6161874 0.04790213 -0.26525027 0.072679065 0.5556491 0.5291607 -0.14990452 -0.5741579 -0.1320897 -0.012155404 0.0690171 -0.26230964 -0.44969773
191 0.2504034 0.25699234 0.34046304 -0.16073401 -0.7719879 0.37848786 0.3644785 -0.53162014 0.3231269 -0.19745179 -0.372477 -0.20405826 -0.06436877 -0.435686 0.47003782 0.27675325 -0.36561638 0.22452164 -0.409739 0.5448104 0.2642413 0.39089888 0.23689261 -0.9748308 -1.0202373 0.14759484 -0.218658 -0.48146668 -0.56627226 -0.21090046 -0.20564906 -0.64413863 -0.5306231 -0.5378527 -0.1658189 0.16066954 -0.6709071 -0.34231305 -0.5667617 0.01049808 -0.23717701 -0.0029944382 -0.031145027 -0.18869989 1.6241302 -0.30718863 0.48637146 0.06463099 -0.62648636 0.26830396 -0.0070678694 0.13449621 0.30167004 0.997307 0.39819303 0.6145772 -0.31484005 -0.5979091 -0.14928783 -0.009344513 -0.28848195 -0.09534431 0.68738884 0.18309408
1469 0.6398242 0.08421571 0.29422584 -0.32829344 -0.6124893 0.40811723 -0.06269705 -0.4877622 0.41239756 -0.52806264 -0.69632393 -0.34686184 0.38234267 -0.57687014 0.7166376 0.8538816 -0.34666902 0.28185296 -0.6394972 0.8674116 0.31045547 0.28950602 0.7539952 -0.7461619 -0.7238787 0.079833895 -0.24820288 -0.14274038 -0.61713153 0.048295222 -0.20383914 -0.33151543 -0.5117058 -0.7486835 -0.29031554 0.38016552 -0.7174181 -0.107716925 -0.57162297 0.028190663 -0.27415517 0.11328272 -0.12321743 0.0028473253 1.4831331 -0.23771372 0.47613007 -0.03560677 -0.41493893 0.113798834 -0.09548698 0.2385057 0.4355321 0.7935917 0.34281722 0.5735984 0.13973068 -0.6207965 0.17854899 -0.38496014 -0.40272692 0.14385167 0.041552067 0.03513271
1197 -0.10324321 -0.06861036 -0.61543703 0.04314591 -0.007637544 0.057853542 -0.69356674 -0.049050577 0.20634548 -0.32955122 -0.019306827 -0.07820084 0.1979271 -0.26723376 0.81780016 0.92389524 0.23669875 0.36040178 0.073654704 1.2056389 0.6839781 0.6756508 -0.88144445 -0.36145723 -1.0566052 0.6174587 0.17802739 0.118749596 0.12692313 -0.5428444 0.2936142 -0.41468382 -0.2938834 -0.28538048 0.9495116 0.51487607 -0.066281945 -0.24043648 -0.06257595 0.04035036 -0.33888346 0.029907838 0.22311924 0.60955626 0.3562884 0.055156387 0.23103207 0.12838173 -0.08684651 0.40508163 0.24977106 -0.3650826 -0.32427588 0.26500222 -0.22315674 0.29491007 0.28177387 -0.21409634 -0.9915124 -0.23125038 0.19773106 -0.53765076 0.13810834 -0.67717403
580 0.6858204 -0.010403404 -0.2192147 0.36666176 0.21856648 -0.27105838 0.23946829 -0.40682268 0.37905443 -0.45119336 0.25463358 -0.5721954 -0.0037704108 -0.15122616 0.25187546 0.36796075 -0.35802424 -0.34251946 -0.38709423 0.5933035 0.16199805 -0.13226217 -0.5582731 -0.9000532 0.30588388 0.015770897 -0.7741348 -0.94526106 0.096777834 0.10013849 -0.30757806 -0.03639502 -0.23652199 -0.22612803 0.25398442 -0.14709687 0.060815662 0.20055921 -0.13864462 -0.3599119 -0.37057304 -0.065181375 -0.25306743 0.8172972 0.98285925 -0.30936265 0.44763196 0.6692468 -0.105748616 -0.63116306 0.24545178 -0.8731687 0.0021295438 0.03452025 0.029837536 0.29217705 0.16544434 -0.533006 -0.4690347 -0.69205755 -0.32065937 0.57181287 -0.12607314 -0.34246618
1136 0.23246878 0.008454461 0.01662009 0.6885979 0.14093277 -0.29259875 -0.050485805 -0.8394755 0.3773887 0.07711157 -0.01932165 -0.28261346 0.40597737 -0.49782425 0.9712519 0.4315379 -0.1239448 0.044889774 -0.30584323 0.7053684 1.1473961 0.91044766 -0.7139912 -0.097311445 -0.75737554 0.438175 0.19913103 -0.040730122 -0.091007665 -0.7404768 0.4278353 -0.52985305 -0.48342562 -0.16334884 0.6875103 0.09330312 -0.067117915 -0.3207153 -0.5982244 -0.28087324 0.2755833 -0.07508456 0.027485758 0.011256258 0.43255377 0.45580244 0.6152703 0.74179274 0.28609732 0.22381282 0.16389187 0.09651711 0.250315 0.17131494 0.12270869 -0.2195324 0.30957785 -0.032981817 -0.61369115 -0.5356224 0.17258745 -0.41385436 -0.37827525 -0.72713435
